{"learner":{"attributes":{},"feature_names":[],"feature_types":[],"gradient_booster":{"model":{"cats":{"enc":[],"feature_segments":[],"sorted_idx":[]},"gbtree_model_param":{"num_parallel_tree":"2","num_trees":"498"},"iteration_indptr":[0,2,4,6,8,10,12,14,16,18,20,22,24,26,28,30,32,34,36,38,40,42,44,46,48,50,52,54,56,58,60,62,64,66,68,70,72,74,76,78,80,82,84,86,88,90,92,94,96,98,100,102,104,106,108,110,112,114,116,118,120,122,124,126,128,130,132,134,136,138,140,142,144,146,148,150,152,154,156,158,160,162,164,166,168,170,172,174,176,178,180,182,184,186,188,190,192,194,196,198,200,202,204,206,208,210,212,214,216,218,220,222,224,226,228,230,232,234,236,238,240,242,244,246,248,250,252,254,256,258,260,262,264,266,268,270,272,274,276,278,280,282,284,286,288,290,292,294,296,298,300,302,304,306,308,310,312,314,316,318,320,322,324,326,328,330,332,334,336,338,340,342,344,346,348,350,352,354,356,358,360,362,364,366,368,370,372,374,376,378,380,382,384,386,388,390,392,394,396,398,400,402,404,406,408,410,412,414,416,418,420,422,424,426,428,430,432,434,436,438,440,442,444,446,448,450,452,454,456,458,460,462,464,466,468,470,472,474,476,478,480,482,484,486,488,490,492,494,496,498],"tree_info":[0,0,0,0,0,0,0,0,0,0,0,0,0,0,0,0,0,0,0,0,0,0,0,0,0,0,0,0,0,0,0,0,0,0,0,0,0,0,0,0,0,0,0,0,0,0,0,0,0,0,0,0,0,0,0,0,0,0,0,0,0,0,0,0,0,0,0,0,0,0,0,0,0,0,0,0,0,0,0,0,0,0,0,0,0,0,0,0,0,0,0,0,0,0,0,0,0,0,0,0,0,0,0,0,0,0,0,0,0,0,0,0,0,0,0,0,0,0,0,0,0,0,0,0,0,0,0,0,0,0,0,0,0,0,0,0,0,0,0,0,0,0,0,0,0,0,0,0,0,0,0,0,0,0,0,0,0,0,0,0,0,0,0,0,0,0,0,0,0,0,0,0,0,0,0,0,0,0,0,0,0,0,0,0,0,0,0,0,0,0,0,0,0,0,0,0,0,0,0,0,0,0,0,0,0,0,0,0,0,0,0,0,0,0,0,0,0,0,0,0,0,0,0,0,0,0,0,0,0,0,0,0,0,0,0,0,0,0,0,0,0,0,0,0,0,0,0,0,0,0,0,0,0,0,0,0,0,0,0,0,0,0,0,0,0,0,0,0,0,0,0,0,0,0,0,0,0,0,0,0,0,0,0,0,0,0,0,0,0,0,0,0,0,0,0,0,0,0,0,0,0,0,0,0,0,0,0,0,0,0,0,0,0,0,0,0,0,0,0,0,0,0,0,0,0,0,0,0,0,0,0,0,0,0,0,0,0,0,0,0,0,0,0,0,0,0,0,0,0,0,0,0,0,0,0,0,0,0,0,0,0,0,0,0,0,0,0,0,0,0,0,0,0,0,0,0,0,0,0,0,0,0,0,0,0,0,0,0,0,0,0,0,0,0,0,0,0,0,0,0,0,0,0,0,0,0,0,0,0,0,0,0,0,0,0,0,0,0,0,0,0,0,0,0,0,0,0,0,0,0,0,0,0,0,0,0,0,0,0,0,0,0,0,0,0,0,0,0,0,0,0,0,0,0,0,0,0,0,0,0,0,0,0,0,0,0,0,0,0,0,0,0,0,0,0,0,0,0,0,0,0,0,0,0,0,0,0,0,0,0,0,0,0,0,0,0,0,0],"trees":[{"base_weights":[-1.2317038E-1,-9.940616E-1,1.4953297E0,-3.2691088E-2,1.2663596E-3,9.0200445E-3,4.718302E-2],"categories":[],"categories_nodes":[],"categories_segments":[],"categories_sizes":[],"default_left":[0,0,0,0,0,0,0],"id":0,"left_children":[1,3,5,-1,-1,-1,-1],"loss_changes":[1.778052E1,2.725215E0,1.2951584E0,0E0,0E0,0E0,0E0],"parents":[2147483647,0,0,1,1,2,2],"right_children":[2,4,6,-1,-1,-1,-1],"split_conditions":[3.694214E-1,6.0949594E-1,-1.19879E-1,-3.2691088E-2,1.2663596E-3,9.0200445E-3,4.718302E-2],"split_indices":[5,0,0,0,0,0,0],"split_type":[0,0,0,0,0,0,0],"sum_hessian":[1.0559871E1,7.1164346E0,3.4434361E0,5.2799354E0,1.8364992E0,1.3773744E0,2.0660615E0],"tree_param":{"num_deleted":"0","num_feature":"108","num_nodes":"7","size_leaf_vector":"1"}},{"base_weights":[1.0340841E-1,-8.024096E-1,9.013132E-1,1.413998E-2,-3.0951569E-2,5.01407E-1,3.357121E-2,-4.3269396E-3,2.7707404E-2],"categories":[],"categories_nodes":[],"categories_segments":[],"categories_sizes":[],"default_left":[0,0,0,0,0,0,0,0,0],"id":1,"left_children":[1,3,5,-1,-1,7,-1,-1,-1],"loss_changes":[9.244112E0,4.306132E0,5.166197E-1,0E0,0E0,2.292591E0,0E0,0E0,0E0],"parents":[2147483647,0,0,1,1,2,2,5,5],"right_children":[2,4,6,-1,-1,8,-1,-1,-1],"split_conditions":[1E0,1E0,1.5254738E0,1.413998E-2,-3.0951569E-2,1E0,3.357121E-2,-4.3269396E-3,2.7707404E-2],"split_indices":[53,10,2,0,0,26,0,0,0],"split_type":[0,0,0,0,0,0,0,0,0],"sum_hessian":[1.0789433E1,5.050373E0,5.73906E0,1.147812E0,3.9025607E0,4.132123E0,1.6069368E0,2.295624E0,1.8364992E0],"tree_param":{"num_deleted":"0","num_feature":"108","num_nodes":"9","size_leaf_vector":"1"}},{"base_weights":[7.67052E-2,-9.5434767E-1,1.6147004E0,-3.196119E-2,1.8451264E-3,4.4823457E-2,1.3409126E-2],"categories":[],"categories_nodes":[],"categories_segments":[],"categories_sizes":[],"default_left":[0,0,0,0,0,0,0],"id":2,"left_children":[1,3,5,-1,-1,-1,-1],"loss_changes":[2.0563423E1,2.6968322E0,3.504944E-2,0E0,0E0,0E0,0E0],"parents":[2147483647,0,0,1,1,2,2],"right_children":[2,4,6,-1,-1,-1,-1],"split_conditions":[3.694214E-1,1E0,1.1764381E0,-3.196119E-2,1.8451264E-3,4.4823457E-2,1.3409126E-2],"split_indices":[5,30,5,0,0,0,0],"split_type":[0,0,0,0,0,0,0],"sum_hessian":[1.0995828E1,6.8099847E0,4.185843E0,4.992713E0,1.817272E0,3.0234132E0,1.1624299E0],"tree_param":{"num_deleted":"0","num_feature":"108","num_nodes":"7","size_leaf_vector":"1"}},{"base_weights":[7.648222E-2,-3.1088773E-2,9.773941E-1,3.80925E-2,-2.231448E-2],"categories":[],"categories_nodes":[],"categories_segments":[],"categories_sizes":[],"default_left":[0,0,0,0,0],"id":3,"left_children":[1,-1,3,-1,-1],"loss_changes":[1.5482302E1,0E0,9.216188E0,0E0,0E0],"parents":[2147483647,0,0,2,2],"right_children":[2,-1,4,-1,-1],"split_conditions":[1E0,-3.1088773E-2,3.333796E-1,3.80925E-2,-2.231448E-2],"split_indices":[33,0,1,0,0],"split_type":[0,0,0,0,0],"sum_hessian":[1.0996688E1,4.306459E0,6.690229E0,5.3209176E0,1.3693113E0],"tree_param":{"num_deleted":"0","num_feature":"108","num_nodes":"5","size_leaf_vector":"1"}},{"base_weights":[-1.4470647E-1,-3.0563755E-2,6.293739E-1,-3.5019454E-1,3.1848174E-2,-2.2173572E-2,8.1453165E-3],"categories":[],"categories_nodes":[],"categories_segments":[],"categories_sizes":[],"default_left":[0,0,0,0,0,0,0],"id":4,"left_children":[1,-1,3,5,-1,-1,-1],"loss_changes":[1.0566272E1,0E0,5.177821E0,1.6527458E0,0E0,0E0,0E0],"parents":[2147483647,0,0,2,2,3,3],"right_children":[2,-1,4,6,-1,-1,-1],"split_conditions":[1E0,-3.0563755E-2,-3.0373456E-2,1E0,3.1848174E-2,-2.2173572E-2,8.1453165E-3],"split_indices":[33,0,2,41,0,0,0],"split_type":[0,0,0,0,0,0,0],"sum_hessian":[1.0742046E1,4.2478724E0,6.4941735E0,2.7585359E0,3.735638E0,1.3637162E0,1.3948195E0],"tree_param":{"num_deleted":"0","num_feature":"108","num_nodes":"7","size_leaf_vector":"1"}},{"base_weights":[1.3008858E-1,-2.9087698E-2,8.0094355E-1,-2.0433912E-2,1.1767598E0,-1.7365443E-3,4.2610988E-2],"categories":[],"categories_nodes":[],"categories_segments":[],"categories_sizes":[],"default_left":[0,0,0,0,0,0,0],"id":5,"left_children":[1,-1,3,-1,5,-1,-1],"loss_changes":[1.0960517E1,0E0,5.9501767E0,0E0,4.765134E0,0E0,0E0],"parents":[2147483647,0,0,2,2,4,4],"right_children":[2,-1,4,-1,6,-1,-1],"split_conditions":[1E0,-2.9087698E-2,-4.1933528E-1,-2.0433912E-2,-1.928165E-1,-1.7365443E-3,4.2610988E-2],"split_indices":[33,0,2,0,0,0,0],"split_type":[0,0,0,0,0,0,0],"sum_hessian":[1.0556154E1,3.3541148E0,7.2020397E0,1.1358935E0,6.0661464E0,2.0627983E0,4.0033484E0],"tree_param":{"num_deleted":"0","num_feature":"108","num_nodes":"7","size_leaf_vector":"1"}},{"base_weights":[-1.6427292E-1,-9.5886946E-1,1.2262217E0,-3.1581514E-2,1.5909377E-3,4.594893E-3,4.245074E-2],"categories":[],"categories_nodes":[],"categories_segments":[],"categories_sizes":[],"default_left":[0,0,0,0,0,0,0],"id":6,"left_children":[1,3,5,-1,-1,-1,-1],"loss_changes":[1.4344398E1,2.6156502E0,2.0353627E0,0E0,0E0,0E0,0E0],"parents":[2147483647,0,0,1,1,2,2],"right_children":[2,4,6,-1,-1,-1,-1],"split_conditions":[3.694214E-1,6.0949594E-1,1E0,-3.1581514E-2,1.5909377E-3,4.594893E-3,4.245074E-2],"split_indices":[5,0,53,0,0,0,0],"split_type":[0,0,0,0,0,0,0],"sum_hessian":[1.0918567E1,7.145621E0,3.7729456E0,5.324971E0,1.8206497E0,1.6085426E0,2.164403E0],"tree_param":{"num_deleted":"0","num_feature":"108","num_nodes":"7","size_leaf_vector":"1"}},{"base_weights":[-3.4125622E-2,-8.960109E-1,1.3478621E0,-3.1074142E-2,5.3132395E-3,8.597769E-3,4.1928858E-2],"categories":[],"categories_nodes":[],"categories_segments":[],"categories_sizes":[],"default_left":[0,0,0,0,0,0,0],"id":7,"left_children":[1,3,5,-1,-1,-1,-1],"loss_changes":[1.4104443E1,3.060018E0,9.3012047E-1,0E0,0E0,0E0,0E0],"parents":[2147483647,0,0,1,1,2,2],"right_children":[2,4,6,-1,-1,-1,-1],"split_conditions":[3.694214E-1,1E0,-1.19879E-1,-3.1074142E-2,5.3132395E-3,8.597769E-3,4.1928858E-2],"split_indices":[5,30,0,0,0,0,0],"split_type":[0,0,0,0,0,0,0],"sum_hessian":[9.8274555E0,6.2692494E0,3.5582058E0,4.682455E0,1.5867944E0,1.3837624E0,2.1744435E0],"tree_param":{"num_deleted":"0","num_feature":"108","num_nodes":"7","size_leaf_vector":"1"}},{"base_weights":[7.052453E-2,-8.8566995E-1,1.3322525E0,-3.0496622E-2,5.0460408E-3,4.047651E-2,7.1847364E-3],"categories":[],"categories_nodes":[],"categories_segments":[],"categories_sizes":[],"default_left":[0,0,0,0,0,0,0],"id":8,"left_children":[1,3,5,-1,-1,-1,-1],"loss_changes":[1.5572254E1,2.9309773E0,1.1956015E0,0E0,0E0,0E0,0E0],"parents":[2147483647,0,0,1,1,2,2],"right_children":[2,4,6,-1,-1,-1,-1],"split_conditions":[3.694214E-1,6.0949594E-1,1.1764381E0,-3.0496622E-2,5.0460408E-3,4.047651E-2,7.1847364E-3],"split_indices":[5,0,5,0,0,0,0],"split_type":[0,0,0,0,0,0,0],"sum_hessian":[1.0929405E1,6.387056E0,4.54235E0,4.792581E0,1.5944748E0,3.1328583E0,1.4094915E0],"tree_param":{"num_deleted":"0","num_feature":"108","num_nodes":"7","size_leaf_vector":"1"}},{"base_weights":[-1.5247484E-1,-3.0655345E-2,1.1775783E0,4.3050637E-3,4.082075E-2],"categories":[],"categories_nodes":[],"categories_segments":[],"categories_sizes":[],"default_left":[0,0,0,0,0],"id":9,"left_children":[1,-1,3,-1,-1],"loss_changes":[1.5187157E1,0E0,1.9197426E0,0E0,0E0],"parents":[2147483647,0,0,2,2],"right_children":[2,-1,4,-1,-1],"split_conditions":[3.694214E-1,-3.0655345E-2,1E0,4.3050637E-3,4.082075E-2],"split_indices":[5,0,53,0,0],"split_type":[0,0,0,0,0],"sum_hessian":[8.623209E0,4.8145456E0,3.808664E0,1.6166716E0,2.1919925E0],"tree_param":{"num_deleted":"0","num_feature":"108","num_nodes":"5","size_leaf_vector":"1"}},{"base_weights":[-6.02756E-2,-3.0610446E-2,1.2749113E0,3.8812783E-2,6.7172362E-3],"categories":[],"categories_nodes":[],"categories_segments":[],"categories_sizes":[],"default_left":[0,0,0,0,0],"id":10,"left_children":[1,-1,3,-1,-1],"loss_changes":[1.8560349E1,0E0,1.1426144E0,0E0,0E0],"parents":[2147483647,0,0,2,2],"right_children":[2,-1,4,-1,-1],"split_conditions":[3.694214E-1,-3.0610446E-2,1.1764381E0,3.8812783E-2,6.7172362E-3],"split_indices":[5,0,5,0,0],"split_type":[0,0,0,0,0],"sum_hessian":[9.93663E0,5.3526473E0,4.583983E0,3.1672733E0,1.4167098E0],"tree_param":{"num_deleted":"0","num_feature":"108","num_nodes":"5","size_leaf_vector":"1"}},{"base_weights":[-3.780983E-2,-8.335528E-1,1.1273496E0,-2.9546443E-2,5.7925484E-3,3.8085082E-3,3.935228E-2],"categories":[],"categories_nodes":[],"categories_segments":[],"categories_sizes":[],"default_left":[0,0,0,0,0,0,0],"id":11,"left_children":[1,3,5,-1,-1,-1,-1],"loss_changes":[1.1032463E1,2.8870564E0,1.8694868E0,0E0,0E0,0E0,0E0],"parents":[2147483647,0,0,1,1,2,2],"right_children":[2,4,6,-1,-1,-1,-1],"split_conditions":[3.694214E-1,6.0949594E-1,1E0,-2.9546443E-2,5.7925484E-3,3.8085082E-3,3.935228E-2],"split_indices":[5,0,53,0,0,0,0],"split_type":[0,0,0,0,0,0,0],"sum_hessian":[9.885583E0,6.0430784E0,3.8425043E0,4.4715586E0,1.5715196E0,1.6287581E0,2.213746E0],"tree_param":{"num_deleted":"0","num_feature":"108","num_nodes":"7","size_leaf_vector":"1"}},{"base_weights":[-1.3264506E-1,-3.0526847E-2,1.2221421E0,3.3399728E-3,4.0933575E-2],"categories":[],"categories_nodes":[],"categories_segments":[],"categories_sizes":[],"default_left":[0,0,0,0,0],"id":12,"left_children":[1,-1,3,-1,-1],"loss_changes":[1.842608E1,0E0,2.3193312E0,0E0,0E0],"parents":[2147483647,0,0,2,2],"right_children":[2,-1,4,-1,-1],"split_conditions":[3.694214E-1,-3.0526847E-2,1E0,3.3399728E-3,4.0933575E-2],"split_indices":[5,0,53,0,0],"split_type":[0,0,0,0,0],"sum_hessian":[1.0483709E1,5.8680477E0,4.6156616E0,1.6393927E0,2.976269E0],"tree_param":{"num_deleted":"0","num_feature":"108","num_nodes":"5","size_leaf_vector":"1"}},{"base_weights":[-1.6481301E-1,-3.0316925E-2,3.7307084E-2],"categories":[],"categories_nodes":[],"categories_segments":[],"categories_sizes":[],"default_left":[0,0,0],"id":13,"left_children":[1,-1,-1],"loss_changes":[1.8577963E1,0E0,0E0],"parents":[2147483647,0,0],"right_children":[2,-1,-1],"split_conditions":[7.729297E-1,-3.0316925E-2,3.7307084E-2],"split_indices":[5,0,0],"split_type":[0,0,0],"sum_hessian":[8.656871E0,5.467617E0,3.1892533E0],"tree_param":{"num_deleted":"0","num_feature":"108","num_nodes":"3","size_leaf_vector":"1"}},{"base_weights":[-7.297771E-2,-8.2619303E-1,1.1393374E0,-2.8657226E-2,1.3764714E-3,3.710027E-2,5.357533E-3],"categories":[],"categories_nodes":[],"categories_segments":[],"categories_sizes":[],"default_left":[0,0,0,0,0,0,0],"id":14,"left_children":[1,3,5,-1,-1,-1,-1],"loss_changes":[1.1060702E1,2.1547537E0,1.1700149E0,0E0,0E0,0E0,0E0],"parents":[2147483647,0,0,1,1,2,2],"right_children":[2,4,6,-1,-1,-1,-1],"split_conditions":[7.729297E-1,1E0,1.1764381E0,-2.8657226E-2,1.3764714E-3,3.710027E-2,5.357533E-3],"split_indices":[5,30,5,0,0,0,0],"split_type":[0,0,0,0,0,0,0],"sum_hessian":[1.0082039E1,6.4149246E0,3.667114E0,4.485069E0,1.9298561E0,2.2314067E0,1.4357076E0],"tree_param":{"num_deleted":"0","num_feature":"108","num_nodes":"7","size_leaf_vector":"1"}},{"base_weights":[1.314596E-1,-7.853655E-1,1.2903814E0,-2.8413767E-2,4.8120017E-3,3.670974E-2,9.23018E-3],"categories":[],"categories_nodes":[],"categories_segments":[],"categories_sizes":[],"default_left":[0,0,0,0,0,0,0],"id":15,"left_children":[1,3,5,-1,-1,-1,-1],"loss_changes":[1.3116419E1,2.6161675E0,3.4488678E-1,0E0,0E0,0E0,0E0],"parents":[2147483647,0,0,1,1,2,2],"right_children":[2,4,6,-1,-1,-1,-1],"split_conditions":[3.694214E-1,1E0,1E0,-2.8413767E-2,4.8120017E-3,3.670974E-2,9.23018E-3],"split_indices":[5,30,41,0,0,0,0],"split_type":[0,0,0,0,0,0,0],"sum_hessian":[1.0390749E1,5.9812794E0,4.4094696E0,4.281363E0,1.6999164E0,3.197535E0,1.2119347E0],"tree_param":{"num_deleted":"0","num_feature":"108","num_nodes":"7","size_leaf_vector":"1"}},{"base_weights":[7.9135865E-2,-8.0185866E-1,1.2504474E0,-2.8422734E-2,4.707615E-3,3.9662324E-2,4.785762E-3],"categories":[],"categories_nodes":[],"categories_segments":[],"categories_sizes":[],"default_left":[0,0,0,0,0,0,0],"id":16,"left_children":[1,3,5,-1,-1,-1,-1],"loss_changes":[1.3102138E1,2.6362958E0,1.6265755E0,0E0,0E0,0E0,0E0],"parents":[2147483647,0,0,1,1,2,2],"right_children":[2,4,6,-1,-1,-1,-1],"split_conditions":[3.694214E-1,1E0,1.1764381E0,-2.8422734E-2,4.707615E-3,3.9662324E-2,4.785762E-3],"split_indices":[5,30,5,0,0,0,0],"split_type":[0,0,0,0,0,0,0],"sum_hessian":[1.0725199E1,6.301205E0,4.423993E0,4.5973525E0,1.703853E0,2.9802308E0,1.4437625E0],"tree_param":{"num_deleted":"0","num_feature":"108","num_nodes":"7","size_leaf_vector":"1"}},{"base_weights":[-5.9027724E-2,-7.841287E-1,1.0017377E0,-2.8161852E-2,4.707615E-3,3.2111447E-2,4.785762E-3],"categories":[],"categories_nodes":[],"categories_segments":[],"categories_sizes":[],"default_left":[0,0,0,0,0,0,0],"id":17,"left_children":[1,3,5,-1,-1,-1,-1],"loss_changes":[9.244998E0,2.5736685E0,8.777218E-1,0E0,0E0,0E0,0E0],"parents":[2147483647,0,0,1,1,2,2],"right_children":[2,4,6,-1,-1,-1,-1],"split_conditions":[3.694214E-1,1E0,1.1764381E0,-2.8161852E-2,4.707615E-3,3.2111447E-2,4.785762E-3],"split_indices":[5,30,5,0,0,0,0],"split_type":[0,0,0,0,0,0,0],"sum_hessian":[9.998341E0,6.0936985E0,3.9046426E0,4.3898454E0,1.703853E0,2.46088E0,1.4437625E0],"tree_param":{"num_deleted":"0","num_feature":"108","num_nodes":"7","size_leaf_vector":"1"}},{"base_weights":[7.9697266E-2,-7.8078985E-1,1.2029363E0,-2.789935E-2,4.736916E-3,3.388254E-2,9.22948E-3],"categories":[],"categories_nodes":[],"categories_segments":[],"categories_sizes":[],"default_left":[0,0,0,0,0,0,0],"id":18,"left_children":[1,3,5,-1,-1,-1,-1],"loss_changes":[1.2177014E1,2.5497227E0,1.9034767E-1,0E0,0E0,0E0,0E0],"parents":[2147483647,0,0,1,1,2,2],"right_children":[2,4,6,-1,-1,-1,-1],"split_conditions":[3.694214E-1,6.0949594E-1,1.1764381E0,-2.789935E-2,4.736916E-3,3.388254E-2,9.22948E-3],"split_indices":[5,0,5,0,0,0,0],"split_type":[0,0,0,0,0,0,0],"sum_hessian":[1.0626894E1,6.189862E0,4.437032E0,4.4889545E0,1.7009073E0,3.222584E0,1.2144482E0],"tree_param":{"num_deleted":"0","num_feature":"108","num_nodes":"7","size_leaf_vector":"1"}},{"base_weights":[1.3373774E-1,-6.3957804E-1,7.1457076E-1,-2.5417784E-2,3.8599968E-3,2.8672654E-2,-1.854805E-2],"categories":[],"categories_nodes":[],"categories_segments":[],"categories_sizes":[],"default_left":[0,0,0,0,0,0,0],"id":19,"left_children":[1,3,5,-1,-1,-1,-1],"loss_changes":[5.495711E0,1.7557683E0,5.1822586E0,0E0,0E0,0E0,0E0],"parents":[2147483647,0,0,1,1,2,2],"right_children":[2,4,6,-1,-1,-1,-1],"split_conditions":[1E0,1E0,3.333796E-1,-2.5417784E-2,3.8599968E-3,2.8672654E-2,-1.854805E-2],"split_indices":[53,30,1,0,0,0,0],"split_type":[0,0,0,0,0,0,0],"sum_hessian":[1.0217838E1,4.33934E0,5.8784976E0,2.7517514E0,1.587589E0,4.696868E0,1.1816299E0],"tree_param":{"num_deleted":"0","num_feature":"108","num_nodes":"7","size_leaf_vector":"1"}},{"base_weights":[-1.13064595E-1,-1.4031761E0,6.2352276E-1,-5.903961E-1,-5.741614E-2,-4.021273E-2,8.417238E-1,-5.088536E-2,5.308472E-1,-2.9119772E-1,1.0084153E0,1.8045617E-2,-2.2693872E-3,-2.2693872E-3,-8.751938E-3,5.1050633E-1,3.3245318E-2,-2.9119772E-1,8.662873E-1,-2.2693872E-3,-8.751938E-3,-2.2693872E-3,2.7205456E-2],"categories":[],"categories_nodes":[],"categories_segments":[],"categories_sizes":[],"default_left":[0,0,0,0,0,0,0,0,0,0,0,0,0,0,0,0,0,0,0,0,0,0,0],"id":20,"left_children":[1,3,5,7,-1,-1,9,-1,11,13,15,-1,-1,-1,-1,17,-1,19,21,-1,-1,-1,-1],"loss_changes":[3.40454E1,8.080215E0,1.2512818E1,1.4285667E1,0E0,0E0,4.3592033E0,0E0,7.045021E-1,9.963214E-3,2.360178E0,0E0,0E0,0E0,0E0,2.840123E0,0E0,9.963214E-3,1.4869728E0,0E0,0E0,0E0,0E0],"parents":[2147483647,0,0,1,1,2,2,3,3,6,6,8,8,9,9,10,10,15,15,17,17,18,18],"right_children":[2,4,6,8,-1,-1,10,-1,12,14,16,-1,-1,-1,-1,18,-1,20,22,-1,-1,-1,-1],"split_conditions":[7.475502E-1,1E0,-8.4925395E-1,-3.3869147E-1,-5.741614E-2,-4.021273E-2,-9.698322E-1,-5.088536E-2,4.6362096E-1,-4.6941508E-2,1.2731639E-1,1.8045617E-2,-2.2693872E-3,-2.2693872E-3,-8.751938E-3,-1.228577E-1,3.3245318E-2,-1.19879E-1,-2.6575398E-1,-2.2693872E-3,-8.751938E-3,-2.2693872E-3,2.7205456E-2],"split_indices":[2,64,0,0,0,0,1,0,0,0,5,0,0,0,0,1,0,0,0,0,0,0,0],"split_type":[0,0,0,0,0,0,0,0,0,0,0,0,0,0,0,0,0,0,0,0,0,0,0],"sum_hessian":[3.390602E1,1.1993967E1,2.1912054E1,7.1502495E0,4.8437176E0,1.3839192E0,2.0528135E1,2.7678385E0,4.382411E0,2.5371852E0,1.799095E1,3.2291448E0,1.1532661E0,1.1532661E0,1.3839192E0,8.072863E0,9.918088E0,2.5371852E0,5.535677E0,1.1532661E0,1.3839192E0,1.1532661E0,4.382411E0],"tree_param":{"num_deleted":"0","num_feature":"108","num_nodes":"23","size_leaf_vector":"1"}},{"base_weights":[-6.29061E-2,-1.2531195E0,6.5804046E-1,-5.376285E-2,5.308472E-1,9.63066E-1,-2.0104E-2,1.8045617E-2,-2.2693872E-3,-2.2693872E-3,1.0353546E0,2.7937511E-2,-2.2693872E-3],"categories":[],"categories_nodes":[],"categories_segments":[],"categories_sizes":[],"default_left":[0,0,0,0,0,0,0,0,0,0,0,0,0],"id":21,"left_children":[1,3,5,-1,7,9,-1,-1,-1,-1,11,-1,-1],"loss_changes":[3.117261E1,2.305169E1,1.0890555E1,0E0,7.045021E-1,1.5583038E0,0E0,0E0,0E0,0E0,1.7728863E0,0E0,0E0],"parents":[2147483647,0,0,1,1,2,2,4,4,5,5,10,10],"right_children":[2,4,6,-1,8,10,-1,-1,-1,-1,12,-1,-1],"split_conditions":[7.475502E-1,1E0,1E0,-5.376285E-2,1E0,1.136512E0,-2.0104E-2,1.8045617E-2,-2.2693872E-3,-2.2693872E-3,1E0,2.7937511E-2,-2.2693872E-3],"split_indices":[2,53,35,0,41,2,0,0,0,0,12,0,0],"split_type":[0,0,0,0,0,0,0,0,0,0,0,0,0],"sum_hessian":[3.436733E1,1.2685926E1,2.1681402E1,8.303515E0,4.382411E0,1.8221603E1,3.459798E0,3.2291448E0,1.1532661E0,1.1532661E0,1.7068336E1,1.59150715E1,1.1532661E0],"tree_param":{"num_deleted":"0","num_feature":"108","num_nodes":"13","size_leaf_vector":"1"}},{"base_weights":[-3.9524058E-1,-8.232477E-1,4.1185252E-2,-2.697098E-2,1.6651776E-2],"categories":[],"categories_nodes":[],"categories_segments":[],"categories_sizes":[],"default_left":[0,0,0,0,0],"id":22,"left_children":[1,3,-1,-1,-1],"loss_changes":[1.2435347E1,4.9605927E0,0E0,0E0,0E0],"parents":[2147483647,0,0,1,1],"right_children":[2,4,-1,-1,-1],"split_conditions":[1E0,1.136512E0,4.1185252E-2,-2.697098E-2,1.6651776E-2],"split_indices":[50,2,0,0,0],"split_type":[0,0,0,0,0],"sum_hessian":[1.167244E1,1.0143907E1,1.5285338E0,8.893288E0,1.2506186E0],"tree_param":{"num_deleted":"0","num_feature":"108","num_nodes":"5","size_leaf_vector":"1"}},{"base_weights":[-6.192349E-1,-2.7206695E-2,3.7476804E-2],"categories":[],"categories_nodes":[],"categories_segments":[],"categories_sizes":[],"default_left":[0,0,0],"id":23,"left_children":[1,-1,-1],"loss_changes":[1.3946041E1,0E0,0E0],"parents":[2147483647,0,0],"right_children":[2,-1,-1],"split_conditions":[3.5858837E-1,-2.7206695E-2,3.7476804E-2],"split_indices":[2,0,0],"split_type":[0,0,0],"sum_hessian":[1.1394525E1,9.727034E0,1.6674914E0],"tree_param":{"num_deleted":"0","num_feature":"108","num_nodes":"3","size_leaf_vector":"1"}},{"base_weights":[-2.7136503E-2,-1.3599173E0,2.676389E-1,3.5459981E-3,-4.360625E-2,-6.9793624E-1,7.0851046E-1,2.048241E-2,-1.1324985E0,4.282749E-1,3.4101877E-2,-4.4894468E-2,1.4293085E-2,1.9335999E-1,3.2216128E-2,-2.6057398E-1,6.361429E-1,1.7163849E-2,-3.8456656E-2,-2.7378246E-3,2.9692575E-2],"categories":[],"categories_nodes":[],"categories_segments":[],"categories_sizes":[],"default_left":[0,0,0,0,0,0,0,0,0,0,0,0,0,0,0,0,0,0,0,0,0],"id":24,"left_children":[1,3,5,-1,-1,7,9,-1,11,13,-1,-1,-1,15,-1,17,19,-1,-1,-1,-1],"loss_changes":[1.4043815E1,3.9822521E0,1.2988329E1,0E0,0E0,7.325832E0,3.2086496E0,0E0,1.0027859E1,2.9686162E0,0E0,0E0,0E0,2.9158812E0,0E0,1.0090541E1,3.0982127E0,0E0,0E0,0E0,0E0],"parents":[2147483647,0,0,1,1,2,2,5,5,6,6,8,8,9,9,13,13,15,15,16,16],"right_children":[2,4,6,-1,-1,8,10,-1,12,14,-1,-1,-1,16,-1,18,20,-1,-1,-1,-1],"split_conditions":[-3.3869147E-1,-2.0516288E0,-3.0373456E-2,3.5459981E-3,-4.360625E-2,-4.6941508E-2,2.3033974E0,2.048241E-2,1E0,1E0,3.4101877E-2,-4.4894468E-2,1.4293085E-2,1.5888434E-2,3.2216128E-2,-7.7369183E-1,1.2731639E-1,1.7163849E-2,-3.8456656E-2,-2.7378246E-3,2.9692575E-2],"split_indices":[0,5,2,0,0,0,2,0,42,12,0,0,0,1,0,1,5,0,0,0,0],"split_type":[0,0,0,0,0,0,0,0,0,0,0,0,0,0,0,0,0,0,0,0,0],"sum_hessian":[3.3820206E1,5.470916E0,2.834929E1,1.24339E0,4.2275257E0,8.70373E0,1.9645561E1,1.7407459E0,6.9629836E0,1.4920679E1,4.7248816E0,4.97356E0,1.9894239E0,1.2682577E1,2.238102E0,6.4656277E0,6.2169495E0,3.9788477E0,2.48678E0,2.9841359E0,3.2328138E0],"tree_param":{"num_deleted":"0","num_feature":"108","num_nodes":"21","size_leaf_vector":"1"}},{"base_weights":[2.7815688E-2,4.282656E-1,-4.5588255E-2,5.88375E-1,-3.4247216E-2,7.6611847E-1,-7.763319E-1,5.768022E-1,3.6756646E-2,3.5459981E-3,-3.2284003E-2,-2.2689183E-3,8.516712E-1,-9.0946E-3,2.048241E-2,2.4114845E-2,-2.1885168E-3],"categories":[],"categories_nodes":[],"categories_segments":[],"categories_sizes":[],"default_left":[0,0,0,0,0,0,0,0,0,0,0,0,0,0,0,0,0],"id":25,"left_children":[1,3,-1,5,-1,7,9,11,-1,-1,-1,13,15,-1,-1,-1,-1],"loss_changes":[2.6964382E1,9.398901E0,0E0,7.412345E0,0E0,2.5339947E0,1.9496064E0,3.4463863E0,0E0,0E0,0E0,2.6631186E0,1.6410875E0,0E0,0E0,0E0,0E0],"parents":[2147483647,0,0,1,1,3,3,5,5,6,6,7,7,11,11,12,12],"right_children":[2,4,-1,6,-1,8,10,12,-1,-1,-1,14,16,-1,-1,-1,-1],"split_conditions":[1E0,1E0,-4.5588255E-2,1E0,-3.4247216E-2,8.868737E-1,1.136512E0,1E0,3.6756646E-2,3.5459981E-3,-3.2284003E-2,1E0,1E0,-9.0946E-3,2.048241E-2,2.4114845E-2,-2.1885168E-3],"split_indices":[46,45,0,35,0,3,2,10,0,0,0,58,54,0,0,0,0],"split_type":[0,0,0,0,0,0,0,0,0,0,0,0,0,0,0,0,0],"sum_hessian":[3.4317562E1,2.8846647E1,5.470916E0,2.71059E1,1.7407459E0,2.4370443E1,2.735458E0,2.0640272E1,3.7301698E0,1.24339E0,1.4920679E0,6.9629836E0,1.3677289E1,5.2222376E0,1.7407459E0,1.2185222E1,1.4920679E0],"tree_param":{"num_deleted":"0","num_feature":"108","num_nodes":"17","size_leaf_vector":"1"}},{"base_weights":[1.23655945E-2,-1.4104387E0,5.2844024E-1,-4.6735357E-2,-4.5537073E-3,-1.7119369E-2,8.297402E-1,-7.3011074E-4,2.7392516E-2],"categories":[],"categories_nodes":[],"categories_segments":[],"categories_sizes":[],"default_left":[0,0,0,0,0,0,0,0,0],"id":26,"left_children":[1,3,5,-1,-1,-1,7,-1,-1],"loss_changes":[9.999067E0,1.7042294E0,4.214675E0,0E0,0E0,0E0,1.9608011E0,0E0,0E0],"parents":[2147483647,0,0,1,1,2,2,6,6],"right_children":[2,4,6,-1,-1,-1,8,-1,-1],"split_conditions":[7.475502E-1,1.3388709E0,-7.03379E-1,-4.6735357E-2,-4.5537073E-3,-1.7119369E-2,-5.970585E-1,-7.3011074E-4,2.7392516E-2],"split_indices":[2,0,0,0,0,0,1,0,0],"split_type":[0,0,0,0,0,0,0,0,0],"sum_hessian":[1.1602578E1,2.626999E0,8.975579E0,1.532416E0,1.0945828E0,1.532416E0,7.4431634E0,1.9702492E0,5.472914E0],"tree_param":{"num_deleted":"0","num_feature":"108","num_nodes":"9","size_leaf_vector":"1"}},{"base_weights":[6.719687E-2,-1.4654351E0,2.9007409E-2,-5.7151314E-2,5.357045E-3],"categories":[],"categories_nodes":[],"categories_segments":[],"categories_sizes":[],"default_left":[0,0,0,0,0],"id":27,"left_children":[1,3,-1,-1,-1],"loss_changes":[2.2446924E1,8.205133E0,0E0,0E0,0E0],"parents":[2147483647,0,0,1,1],"right_children":[2,4,-1,-1,-1],"split_conditions":[1E0,1.5254738E0,2.9007409E-2,-5.7151314E-2,5.357045E-3],"split_indices":[53,2,0,0,0],"split_type":[0,0,0,0,0],"sum_hessian":[1.1383661E1,4.597248E0,6.7864137E0,2.8459153E0,1.7513325E0],"tree_param":{"num_deleted":"0","num_feature":"108","num_nodes":"5","size_leaf_vector":"1"}},{"base_weights":[-1.9631661E-2,5.1087403E-1,-1.0994978E0,1.0458211E0,-1.2091881E0,-4.3806814E-2,9.778749E-1,-2.9117716E-2,1.2786179E0,6.390158E-3,-3.9713744E-2,6.390158E-3,3.0914554E-2,1.7734896E-1,1.4513952E0,8.984191E-4,6.390158E-3,3.8315747E-2,6.390158E-3],"categories":[],"categories_nodes":[],"categories_segments":[],"categories_sizes":[],"default_left":[0,0,0,0,0,0,0,0,0,0,0,0,0,0,0,0,0,0,0],"id":28,"left_children":[1,3,5,7,9,-1,11,-1,13,-1,-1,-1,-1,15,17,-1,-1,-1,-1],"loss_changes":[2.2598152E1,2.562734E1,1.932766E1,1.2158148E1,4.154066E0,0E0,3.841722E-1,0E0,3.4022713E0,0E0,0E0,0E0,0E0,3.228662E-2,1.2097015E0,0E0,0E0,0E0,0E0],"parents":[2147483647,0,0,1,1,2,2,3,3,4,4,6,6,8,8,13,13,14,14],"right_children":[2,4,6,8,10,-1,12,-1,14,-1,-1,-1,-1,16,18,-1,-1,-1,-1],"split_conditions":[1E0,1.3388709E0,1E0,-1.9751825E0,-1.323366E-1,-4.3806814E-2,-6.304415E-1,-2.9117716E-2,-4.11629E-1,6.390158E-3,-3.9713744E-2,6.390158E-3,3.0914554E-2,-5.5750394E-1,1E0,8.984191E-4,6.390158E-3,3.8315747E-2,6.390158E-3],"split_indices":[64,0,58,2,1,0,0,0,0,0,0,0,0,0,24,0,0,0,0],"split_type":[0,0,0,0,0,0,0,0,0,0,0,0,0,0,0,0,0,0,0],"sum_hessian":[3.7466408E1,2.5477156E1,1.198925E1,1.9732307E1,5.7448487E0,9.241714E0,2.7475364E0,1.4986563E0,1.8233652E1,1.2488801E0,4.495969E0,1.2488801E0,1.4986563E0,2.7475364E0,1.54861145E1,1.4986563E0,1.2488801E0,1.4237234E1,1.2488801E0],"tree_param":{"num_deleted":"0","num_feature":"108","num_nodes":"19","size_leaf_vector":"1"}},{"base_weights":[-1.8516013E-1,-9.998648E-1,5.573436E-1,-1.2781746E0,3.0914554E-2,-4.7313392E-1,1.3601173E0,-1.5821692E0,1.7734896E-1,-3.46675E-2,5.1350072E-2,3.887825E-2,8.984191E-4,-4.4659972E-2,6.390158E-3,8.984191E-4,6.390158E-3,1.2582346E-2,-6.7179934E-3],"categories":[],"categories_nodes":[],"categories_segments":[],"categories_sizes":[],"default_left":[0,0,0,0,0,0,0,0,0,0,0,0,0,0,0,0,0,0,0],"id":29,"left_children":[1,3,5,7,-1,9,11,13,15,-1,17,-1,-1,-1,-1,-1,-1,-1,-1],"loss_changes":[2.291985E1,1.2774738E1,1.7174244E1,7.5752296E0,0E0,4.6194906E0,2.9113522E0,5.6130943E0,3.228662E-2,0E0,1.1470423E0,0E0,0E0,0E0,0E0,0E0,0E0,0E0,0E0],"parents":[2147483647,0,0,1,1,2,2,3,3,5,5,6,6,7,7,8,8,10,10],"right_children":[2,4,6,8,-1,10,12,14,16,-1,18,-1,-1,-1,-1,-1,-1,-1,-1],"split_conditions":[1E0,4.601394E-1,-3.0373456E-2,1E0,3.0914554E-2,-1.9751825E0,1E0,1E0,1.5254738E0,-3.46675E-2,-4.1933528E-1,3.887825E-2,8.984191E-4,-4.4659972E-2,6.390158E-3,8.984191E-4,6.390158E-3,1.2582346E-2,-6.7179934E-3],"split_indices":[53,3,2,48,0,2,24,23,2,0,2,0,0,0,0,0,0,0,0],"split_type":[0,0,0,0,0,0,0,0,0,0,0,0,0,0,0,0,0,0,0],"sum_hessian":[3.596775E1,1.698477E1,1.8982979E1,1.54861145E1,1.4986563E0,8.492385E0,1.0490594E1,1.2738578E1,2.7475364E0,2.4977603E0,5.994625E0,8.991938E0,1.4986563E0,1.1489697E1,1.2488801E0,1.4986563E0,1.2488801E0,2.2479844E0,3.7466407E0],"tree_param":{"num_deleted":"0","num_feature":"108","num_nodes":"19","size_leaf_vector":"1"}},{"base_weights":[4.8404485E-2,-2.6163498E-2,3.5277843E-2],"categories":[],"categories_nodes":[],"categories_segments":[],"categories_sizes":[],"default_left":[0,0,0],"id":30,"left_children":[1,-1,-1],"loss_changes":[8.654751E0,0E0,0E0],"parents":[2147483647,0,0],"right_children":[2,-1,-1],"split_conditions":[1.136512E0,-2.6163498E-2,3.5277843E-2],"split_indices":[2,0,0],"split_type":[0,0,0],"sum_hessian":[3.8106754E0,2.2415738E0,1.5691016E0],"tree_param":{"num_deleted":"0","num_feature":"108","num_nodes":"3","size_leaf_vector":"1"}},{"base_weights":[-2.1129867E-2,-2.7581615E-2,4.226687E-2],"categories":[],"categories_nodes":[],"categories_segments":[],"categories_sizes":[],"default_left":[0,0,0],"id":31,"left_children":[1,-1,-1],"loss_changes":[1.1191803E1,0E0,0E0],"parents":[2147483647,0,0],"right_children":[2,-1,-1],"split_conditions":[1E0,-2.7581615E-2,4.226687E-2],"split_indices":[48,0,0],"split_type":[0,0,0],"sum_hessian":[4.034833E0,2.6898885E0,1.3449442E0],"tree_param":{"num_deleted":"0","num_feature":"108","num_nodes":"3","size_leaf_vector":"1"}},{"base_weights":[-8.322883E-2,-1.3156625E0,3.5643347E-2,-4.2603597E-2,-3.1671827E-3],"categories":[],"categories_nodes":[],"categories_segments":[],"categories_sizes":[],"default_left":[0,0,0,0,0],"id":32,"left_children":[1,3,-1,-1,-1],"loss_changes":[1.9369034E1,2.4158697E0,0E0,0E0,0E0],"parents":[2147483647,0,0,1,1],"right_children":[2,4,-1,-1,-1],"split_conditions":[1.5254738E0,1.0318923E0,3.5643347E-2,-4.2603597E-2,-3.1671827E-3],"split_indices":[2,1,0,0,0],"split_type":[0,0,0,0,0],"sum_hessian":[8.406508E0,4.697755E0,3.7087538E0,3.2142534E0,1.4835016E0],"tree_param":{"num_deleted":"0","num_feature":"108","num_nodes":"5","size_leaf_vector":"1"}},{"base_weights":[5.5161502E-2,-1.3156625E0,3.695124E-2,-4.2603597E-2,-3.1671827E-3],"categories":[],"categories_nodes":[],"categories_segments":[],"categories_sizes":[],"default_left":[0,0,0,0,0],"id":33,"left_children":[1,3,-1,-1,-1],"loss_changes":[2.173909E1,2.4158697E0,0E0,0E0,0E0],"parents":[2147483647,0,0,1,1],"right_children":[2,4,-1,-1,-1],"split_conditions":[1.5254738E0,1E0,3.695124E-2,-4.2603597E-2,-3.1671827E-3],"split_indices":[2,53,0,0,0],"split_type":[0,0,0,0,0],"sum_hessian":[9.148259E0,4.697755E0,4.450505E0,3.2142534E0,1.4835016E0],"tree_param":{"num_deleted":"0","num_feature":"108","num_nodes":"5","size_leaf_vector":"1"}},{"base_weights":[-2.9846728E-1,-7.8043634E-1,4.2717505E-2,-2.6844371E-2,1.8080248E-2],"categories":[],"categories_nodes":[],"categories_segments":[],"categories_sizes":[],"default_left":[0,0,0,0,0],"id":34,"left_children":[1,3,-1,-1,-1],"loss_changes":[1.209044E1,5.0342364E0,0E0,0E0,0E0],"parents":[2147483647,0,0,1,1],"right_children":[2,4,-1,-1,-1],"split_conditions":[1E0,1E0,4.2717505E-2,-2.6844371E-2,1.8080248E-2],"split_indices":[30,44,0,0,0],"split_type":[0,0,0,0,0],"sum_hessian":[1.0119485E1,8.652892E0,1.466592E0,7.479619E0,1.1732736E0],"tree_param":{"num_deleted":"0","num_feature":"108","num_nodes":"5","size_leaf_vector":"1"}},{"base_weights":[-2.9846728E-1,-7.8043634E-1,4.2717505E-2,-2.6905388E-2,2.1591013E-2],"categories":[],"categories_nodes":[],"categories_segments":[],"categories_sizes":[],"default_left":[0,0,0,0,0],"id":35,"left_children":[1,3,-1,-1,-1],"loss_changes":[1.209044E1,5.623508E0,0E0,0E0,0E0],"parents":[2147483647,0,0,1,1],"right_children":[2,4,-1,-1,-1],"split_conditions":[1E0,1E0,4.2717505E-2,-2.6905388E-2,2.1591013E-2],"split_indices":[30,44,0,0,0],"split_type":[0,0,0,0,0],"sum_hessian":[1.0119485E1,8.652892E0,1.466592E0,7.626278E0,1.0266144E0],"tree_param":{"num_deleted":"0","num_feature":"108","num_nodes":"5","size_leaf_vector":"1"}},{"base_weights":[4.1631162E-2,-8.6882645E-1,8.3168375E-1,-1.9893148E0,-3.0723795E-1,3.3746418E-2,5.544415E-1,-5.8029126E-2,-9.268696E-3,1.4048855E-1,-1.1762885E0,1.0880685E0,-1.1193152E-1,-4.5873237E-1,7.627117E-1,-4.698151E-1,-4.3520313E-2,-2.7138635E-3,3.1408872E-2,-7.265874E-1,3.7152225E-1,7.092019E-2,-3.771707E-2,-2.7138635E-3,2.4995597E-2,-1.4671107E-2,-2.7138635E-3,-4.089835E-2,7.3176436E-3,-2.7138635E-3,5.199238E-1,7.3176436E-3,-3.539921E-3,1.9288896E-2,-2.7138635E-3],"categories":[],"categories_nodes":[],"categories_segments":[],"categories_sizes":[],"default_left":[0,0,0,0,0,0,0,0,0,0,0,0,0,0,0,0,0,0,0,0,0,0,0,0,0,0,0,0,0,0,0,0,0,0,0],"id":36,"left_children":[1,3,5,7,9,-1,11,-1,-1,13,15,17,19,21,23,25,-1,-1,-1,27,29,31,-1,-1,-1,-1,-1,-1,-1,-1,33,-1,-1,-1,-1],"loss_changes":[3.300388E1,1.2816671E1,2.7768173E0,2.8680458E0,6.1563845E0,0E0,6.409714E0,0E0,0E0,4.4718823E0,1.3126874E0,2.1325703E0,2.8760443E0,3.5861473E0,1.3065746E0,9.45161E-2,0E0,0E0,0E0,4.371278E0,4.5331585E-1,2.8246555E-1,0E0,0E0,0E0,0E0,0E0,0E0,0E0,0E0,7.840203E-1,0E0,0E0,0E0,0E0],"parents":[2147483647,0,0,1,1,2,2,3,3,4,4,6,6,9,9,10,10,11,11,12,12,13,13,14,14,15,15,19,19,20,20,21,21,30,30],"right_children":[2,4,6,8,10,-1,12,-1,-1,14,16,18,20,22,24,26,-1,-1,-1,28,30,32,-1,-1,-1,-1,-1,-1,-1,-1,34,-1,-1,-1,-1],"split_conditions":[2.5995985E-2,3.5858837E-1,-8.502806E-1,1E0,-1.4967513E-1,3.3746418E-2,6.0949594E-1,-5.8029126E-2,-9.268696E-3,-6.076074E-1,-5.5750394E-1,3.5858837E-1,-4.739748E-1,1E0,-9.2219144E-1,-7.7631646E-1,-4.3520313E-2,-2.7138635E-3,3.1408872E-2,1.9144356E0,1.136512E0,-5.5750394E-1,-3.771707E-2,-2.7138635E-3,2.4995597E-2,-1.4671107E-2,-2.7138635E-3,-4.089835E-2,7.3176436E-3,-2.7138635E-3,1E0,7.3176436E-3,-3.539921E-3,1.9288896E-2,-2.7138635E-3],"split_indices":[0,2,1,55,1,0,0,0,0,1,0,2,1,24,0,0,0,0,0,2,2,0,0,0,0,0,0,0,0,0,27,0,0,0,0],"split_type":[0,0,0,0,0,0,0,0,0,0,0,0,0,0,0,0,0,0,0,0,0,0,0,0,0,0,0,0,0,0,0,0,0,0,0],"sum_hessian":[4.3878174E1,2.0339361E1,2.3538813E1,5.941836E0,1.4397526E1,6.8559647E0,1.6682848E1,4.570643E0,1.3711929E0,1.0055415E1,4.342111E0,8.912754E0,7.7700934E0,5.2562394E0,4.7991753E0,2.7423859E0,1.599725E0,1.1426607E0,7.7700934E0,3.19945E0,4.570643E0,4.113579E0,1.1426607E0,1.1426607E0,3.6565144E0,1.599725E0,1.1426607E0,1.3711929E0,1.8282572E0,1.1426607E0,3.4279823E0,1.8282572E0,2.2853215E0,2.2853215E0,1.1426607E0],"tree_param":{"num_deleted":"0","num_feature":"108","num_nodes":"35","size_leaf_vector":"1"}},{"base_weights":[1.3646695E-1,-1.0501589E0,7.79979E-1,-1.3678213E0,1.3434607E-2,-2.3052555E-2,9.3434393E-1,-1.8215125E0,5.373843E-1,1.0135297E0,-9.268696E-3,-8.350952E-1,-2.1278179E0,-2.7138635E-3,2.2360954E-2,3.1533234E-2,7.553811E-1,-2.6368737E-2,-2.7138635E-3,-5.9818834E-2,-1.9200455E-2,1.9870503E-2,7.3176436E-3],"categories":[],"categories_nodes":[],"categories_segments":[],"categories_sizes":[],"default_left":[0,0,0,0,0,0,0,0,0,0,0,0,0,0,0,0,0,0,0,0,0,0,0],"id":37,"left_children":[1,3,5,7,-1,-1,9,11,13,15,-1,17,19,-1,-1,-1,21,-1,-1,-1,-1,-1,-1],"loss_changes":[3.6309998E1,9.191561E0,8.930143E0,1.33004E1,0E0,0E0,3.336832E0,1.7705574E0,9.075128E-1,7.9237175E-1,0E0,5.92154E-1,1.1571655E0,0E0,0E0,0E0,5.6656837E-2,0E0,0E0,0E0,0E0,0E0,0E0],"parents":[2147483647,0,0,1,1,2,2,3,3,6,6,7,7,8,8,9,9,11,11,12,12,16,16],"right_children":[2,4,6,8,-1,-1,10,12,14,16,-1,18,20,-1,-1,-1,22,-1,-1,-1,-1,-1,-1],"split_conditions":[1E0,1.9144356E0,3.5858837E-1,1E0,1.3434607E-2,-2.3052555E-2,1E0,1E0,1E0,1E0,-9.268696E-3,1E0,1.5254738E0,-2.7138635E-3,2.2360954E-2,3.1533234E-2,1.9144356E0,-2.6368737E-2,-2.7138635E-3,-5.9818834E-2,-1.9200455E-2,1.9870503E-2,7.3176436E-3],"split_indices":[53,2,2,26,0,0,12,65,12,10,0,35,2,0,0,0,2,0,0,0,0,0,0],"split_type":[0,0,0,0,0,0,0,0,0,0,0,0,0,0,0,0,0,0,0,0,0,0,0],"sum_hessian":[4.5477898E1,1.5768719E1,2.970918E1,1.3254865E1,2.5138538E0,2.0567894E0,2.7652391E1,1.0741011E1,2.5138538E0,2.6281199E1,1.3711929E0,3.4279823E0,7.313029E0,1.1426607E0,1.3711929E0,1.1426608E1,1.485459E1,2.2853215E0,1.1426607E0,5.4847717E0,1.8282572E0,1.3026333E1,1.8282572E0],"tree_param":{"num_deleted":"0","num_feature":"108","num_nodes":"23","size_leaf_vector":"1"}},{"base_weights":[3.1295933E-2,-5.9212863E-1,8.3677006E-1,-5.017645E-2,6.584216E-2,1.061943E0,-3.5197627E-2,4.476613E-1,-1.2635452E0,2.5194365E-1,1.4022254E0,-5.4407066E-1,9.19152E-1,2.8133607E-3,-4.2350214E-2,3.139318E-2,-3.3487278E-1,3.7098356E-2,1.34458905E-2,-1.1680467E0,1.9692069E-2,1.1332631E0,-7.75278E-3,-3.8313184E-2,7.934666E-1,2.8133607E-3,-4.060012E-2,3.5603907E-2,-7.75278E-3,2.7182529E-2,2.8133607E-3],"categories":[],"categories_nodes":[],"categories_segments":[],"categories_sizes":[],"default_left":[0,0,0,0,0,0,0,0,0,0,0,0,0,0,0,0,0,0,0,0,0,0,0,0,0,0,0,0,0,0,0],"id":38,"left_children":[1,3,5,-1,7,9,-1,11,13,15,17,19,21,-1,-1,-1,23,-1,-1,25,-1,27,-1,-1,29,-1,-1,-1,-1,-1,-1],"loss_changes":[2.9089628E1,3.0560953E1,1.4261799E1,0E0,1.2381347E1,6.131098E0,0E0,9.301392E0,3.4223013E0,5.237975E0,3.564644E-1,6.482091E0,3.807047E0,0E0,0E0,0E0,9.257584E0,0E0,0E0,3.0791965E0,0E0,5.226678E0,0E0,0E0,6.225238E-1,0E0,0E0,0E0,0E0,0E0,0E0],"parents":[2147483647,0,0,1,1,2,2,4,4,5,5,7,7,8,8,9,9,10,10,11,11,12,12,16,16,19,19,21,21,24,24],"right_children":[2,4,6,-1,8,10,-1,12,14,16,18,20,22,-1,-1,-1,24,-1,-1,26,-1,28,-1,-1,30,-1,-1,-1,-1,-1,-1],"split_conditions":[3.694214E-1,-3.3869147E-1,1E0,-5.017645E-2,1E0,-4.11629E-1,-3.5197627E-2,5.3655845E-1,-1.19879E-1,-1.0157968E0,1E0,1E0,1E0,2.8133607E-3,-4.2350214E-2,3.139318E-2,1.1213027E0,3.7098356E-2,1.34458905E-2,-7.180305E-1,1.9692069E-2,1E0,-7.75278E-3,-3.8313184E-2,1.6716756E0,2.8133607E-3,-4.060012E-2,3.5603907E-2,-7.75278E-3,2.7182529E-2,2.8133607E-3],"split_indices":[5,0,31,0,31,0,0,0,0,1,64,58,41,0,0,0,1,0,0,1,0,37,0,0,1,0,0,0,0,0,0],"split_type":[0,0,0,0,0,0,0,0,0,0,0,0,0,0,0,0,0,0,0,0,0,0,0,0,0,0,0,0,0,0,0],"sum_hessian":[5.594318E1,3.1684633E1,2.4258547E1,9.406376E0,2.2278257E1,2.2525795E1,1.7327534E0,1.7822607E1,4.4556518E0,7.17855E0,1.5347244E1,5.6933327E0,1.2129273E1,1.237681E0,3.2179706E0,2.2278259E0,4.950724E0,1.3366955E1,1.9802896E0,3.9605792E0,1.7327534E0,1.0396521E1,1.7327534E0,2.2278259E0,2.7228982E0,1.237681E0,2.7228982E0,8.663767E0,1.7327534E0,1.4852172E0,1.237681E0],"tree_param":{"num_deleted":"0","num_feature":"108","num_nodes":"31","size_leaf_vector":"1"}},{"base_weights":[1.18878335E-2,-8.6648697E-1,8.322896E-1,-1.3329145E0,9.1656494E-1,1.0180429E0,-3.5197627E-2,-1.6679124E0,2.5203362E-2,3.6228765E-3,3.4028765E-2,-3.795571E-1,1.226869E0,-1.7893671E0,2.8133607E-3,-2.9959215E-3,-1.1719449E-2,5.5783844E-1,3.4356166E-2,-1.9276812E0,2.8133607E-3,2.8133607E-3,1.6156439E-2,-5.2062817E-2,-7.75278E-3],"categories":[],"categories_nodes":[],"categories_segments":[],"categories_sizes":[],"default_left":[0,0,0,0,0,0,0,0,0,0,0,0,0,0,0,0,0,0,0,0,0,0,0,0,0],"id":39,"left_children":[1,3,5,7,9,11,-1,13,-1,-1,-1,15,17,19,-1,-1,-1,21,-1,23,-1,-1,-1,-1,-1],"loss_changes":[4.2112335E1,2.469874E1,1.4004103E1,1.954911E1,2.0140724E0,8.776691E0,0E0,4.592808E0,0E0,0E0,0E0,4.729992E-2,1.6994781E0,5.2335205E0,0E0,0E0,0E0,1.713202E-1,0E0,3.8203354E0,0E0,0E0,0E0,0E0,0E0],"parents":[2147483647,0,0,1,1,2,2,3,3,4,4,5,5,7,7,11,11,12,12,13,13,17,17,19,19],"right_children":[2,4,6,8,10,12,-1,14,-1,-1,-1,16,18,20,-1,-1,-1,22,-1,24,-1,-1,-1,-1,-1],"split_conditions":[1E0,1E0,1E0,1.9144356E0,1.136512E0,-3.0373456E-2,-3.5197627E-2,1.4720085E-1,2.5203362E-2,3.6228765E-3,3.4028765E-2,1E0,3.5858837E-1,1E0,2.8133607E-3,-2.9959215E-3,-1.1719449E-2,1E0,3.4356166E-2,1E0,2.8133607E-3,2.8133607E-3,1.6156439E-2,-5.2062817E-2,-7.75278E-3],"split_indices":[53,58,12,2,2,2,0,3,0,0,0,41,2,34,0,0,0,10,0,61,0,0,0,0,0],"split_type":[0,0,0,0,0,0,0,0,0,0,0,0,0,0,0,0,0,0,0,0,0,0,0,0,0],"sum_hessian":[5.6438255E1,2.7228981E1,2.9209272E1,2.1783186E1,5.4457965E0,2.7476519E1,1.7327534E0,1.9307823E1,2.475362E0,2.475362E0,2.9704344E0,3.4655068E0,2.4011011E1,1.8070143E1,1.237681E0,1.4852172E0,1.9802896E0,5.1982603E0,1.8812752E1,1.6832462E1,1.237681E0,1.237681E0,3.9605792E0,1.5099708E1,1.7327534E0],"tree_param":{"num_deleted":"0","num_feature":"108","num_nodes":"25","size_leaf_vector":"1"}},{"base_weights":[4.55864E-2,-1.4452677E0,4.073685E-1,-4.771769E-2,-3.7979286E-3,-4.9394757E-2,3.1013591E-2,-8.004597E-1,3.371898E-1,-4.5388747E-2,1.3179327E-2,2.7398035E-2,-2.3538277E-1,4.9030006E-1,-2.4760699E-2,2.1539008E-2,-3.7979286E-3],"categories":[],"categories_nodes":[],"categories_segments":[],"categories_sizes":[],"default_left":[0,0,0,0,0,0,0,0,0,0,0,0,0,0,0,0,0],"id":40,"left_children":[1,3,5,-1,-1,7,-1,9,11,-1,-1,-1,13,15,-1,-1,-1],"loss_changes":[1.0751134E1,2.0471945E0,6.128289E0,0E0,0E0,3.5389013E0,0E0,6.5125227E0,3.7927172E0,0E0,0E0,0E0,3.4774594E0,9.5422953E-1,0E0,0E0,0E0],"parents":[2147483647,0,0,1,1,2,2,5,5,7,7,8,8,12,12,13,13],"right_children":[2,4,6,-1,-1,8,-1,10,12,-1,-1,-1,14,16,-1,-1,-1],"split_conditions":[-3.4086965E-2,1.5254738E0,1.5254738E0,-4.771769E-2,-3.7979286E-3,7.729297E-1,3.1013591E-2,2.5995985E-2,3.5858837E-1,-4.5388747E-2,1.3179327E-2,2.7398035E-2,1.1764381E0,-6.034977E-1,-2.4760699E-2,2.1539008E-2,-3.7979286E-3],"split_indices":[5,2,2,0,0,5,0,0,2,0,0,0,5,1,0,0,0],"split_type":[0,0,0,0,0,0,0,0,0,0,0,0,0,0,0,0,0],"sum_hessian":[1.7841398E1,2.8992271E0,1.4942171E1,1.7841398E0,1.1150874E0,1.0258803E1,4.683367E0,3.1222446E0,7.136559E0,1.5611223E0,1.5611223E0,2.6762097E0,4.4603496E0,2.4531922E0,2.0071573E0,1.3381048E0,1.1150874E0],"tree_param":{"num_deleted":"0","num_feature":"108","num_nodes":"17","size_leaf_vector":"1"}},{"base_weights":[1.1891251E-1,-3.6054143E-1,2.4745135E-2,-1.3342135E0,3.371898E-1,-1.6026546E0,-3.7979286E-3,2.7398035E-2,-2.3538277E-1,-4.9701195E-2,-1.0538253E-2,-1.6104711E-2,2.3374704E-3],"categories":[],"categories_nodes":[],"categories_segments":[],"categories_sizes":[],"default_left":[0,0,0,0,0,0,0,0,0,0,0,0,0],"id":41,"left_children":[1,3,-1,5,7,9,-1,-1,11,-1,-1,-1,-1],"loss_changes":[8.037905E0,9.007737E0,0E0,1.4895182E0,3.7927172E0,1.1399288E0,0E0,0E0,7.9436743E-1,0E0,0E0,0E0,0E0],"parents":[2147483647,0,0,1,1,3,3,4,4,5,5,8,8],"right_children":[2,4,-1,6,8,10,-1,-1,12,-1,-1,-1,-1],"split_conditions":[1.5254738E0,1E0,2.4745135E-2,1E0,3.5858837E-1,1E0,-3.7979286E-3,2.7398035E-2,1E0,-4.9701195E-2,-1.0538253E-2,-1.6104711E-2,2.3374704E-3],"split_indices":[2,53,0,48,2,31,0,0,10,0,0,0,0],"split_type":[0,0,0,0,0,0,0,0,0,0,0,0,0],"sum_hessian":[1.7395363E1,1.1596909E1,5.7984543E0,4.4603496E0,7.136559E0,3.345262E0,1.1150874E0,2.6762097E0,4.4603496E0,2.0071573E0,1.3381048E0,1.5611223E0,2.8992271E0],"tree_param":{"num_deleted":"0","num_feature":"108","num_nodes":"13","size_leaf_vector":"1"}},{"base_weights":[-1.1403783E-1,-6.750196E-1,7.909637E-1,6.308682E-3,-9.573265E-1,2.3597976E-2,6.308682E-3,-3.5695028E-2,6.308682E-3],"categories":[],"categories_nodes":[],"categories_segments":[],"categories_sizes":[],"default_left":[0,0,0,0,0,0,0,0,0],"id":42,"left_children":[1,3,5,-1,7,-1,-1,-1,-1],"loss_changes":[5.226986E0,1.8768375E0,9.116101E-2,0E0,3.2042441E0,0E0,0E0,0E0,0E0],"parents":[2147483647,0,0,1,1,2,2,4,4],"right_children":[2,4,6,-1,8,-1,-1,-1,-1],"split_conditions":[6.824334E-1,-7.1995276E-1,-4.753668E-1,6.308682E-3,-4.3911036E-2,2.3597976E-2,6.308682E-3,-3.5695028E-2,6.308682E-3],"split_indices":[0,1,1,0,1,0,0,0,0],"split_type":[0,0,0,0,0,0,0,0,0],"sum_hessian":[8.243978E0,5.246167E0,2.99781E0,1.2490875E0,3.9970798E0,1.7487224E0,1.2490875E0,2.7479925E0,1.2490875E0],"tree_param":{"num_deleted":"0","num_feature":"108","num_nodes":"9","size_leaf_vector":"1"}},{"base_weights":[4.8668742E-2,-1.0044653E0,2.5044208E-2,-3.687427E-3,-3.47674E-2],"categories":[],"categories_nodes":[],"categories_segments":[],"categories_sizes":[],"default_left":[0,0,0,0,0],"id":43,"left_children":[1,3,-1,-1,-1],"loss_changes":[1.1037063E1,1.5315337E0,0E0,0E0,0E0],"parents":[2147483647,0,0,1,1],"right_children":[2,4,-1,-1,-1],"split_conditions":[1E0,1E0,2.5044208E-2,-3.687427E-3,-3.47674E-2],"split_indices":[53,65,0,0,0],"split_type":[0,0,0,0,0],"sum_hessian":[8.993429E0,4.246897E0,4.7465324E0,1.7487224E0,2.498175E0],"tree_param":{"num_deleted":"0","num_feature":"108","num_nodes":"5","size_leaf_vector":"1"}},{"base_weights":[-7.265697E-2,-3.1223109E-2,5.978276E-1,1.2750522E0,-6.412689E-1,-1.8303048E-2,1.6151091E0,-2.7911717E-2,1.8273752E-2,5.6197715E-1,2.0267673E0,-2.1266297E-2,4.643239E-2,5.8443595E-2,1.3255009E-2],"categories":[],"categories_nodes":[],"categories_segments":[],"categories_sizes":[],"default_left":[0,0,0,0,0,0,0,0,0,0,0,0,0,0,0],"id":44,"left_children":[1,-1,3,5,7,-1,9,-1,-1,11,13,-1,-1,-1,-1],"loss_changes":[1.7276457E1,0E0,1.2587482E1,7.601083E0,4.4821405E0,0E0,2.4824371E0,0E0,0E0,8.407367E0,1.3770428E0,0E0,0E0,0E0,0E0],"parents":[2147483647,0,0,2,2,3,3,4,4,6,6,9,9,10,10],"right_children":[2,-1,4,6,8,-1,10,-1,-1,12,14,-1,-1,-1,-1],"split_conditions":[-3.3869147E-1,-3.1223109E-2,1E0,-4.1933528E-1,1.4847459E0,-1.8303048E-2,3.1774595E-1,-2.7911717E-2,1.8273752E-2,9.863727E-1,3.366256E-2,-2.1266297E-2,4.643239E-2,5.8443595E-2,1.3255009E-2],"split_indices":[0,0,64,2,0,0,0,0,0,1,1,0,0,0,0],"split_type":[0,0,0,0,0,0,0,0,0,0,0,0,0,0,0],"sum_hessian":[1.9959124E1,6.9331694E0,1.3025955E1,8.403842E0,4.622113E0,1.0504802E0,7.3533616E0,3.5716329E0,1.0504802E0,2.7312486E0,4.6221128E0,1.4706724E0,1.2605762E0,3.3615367E0,1.2605762E0],"tree_param":{"num_deleted":"0","num_feature":"108","num_nodes":"15","size_leaf_vector":"1"}},{"base_weights":[-1.7817575E-1,-8.913421E-1,1.1570048E0,-3.2441206E-2,4.5584345E-1,-2.2399569E-2,1.9022764E0,2.5756785E-3,1.8273752E-2,5.8443595E-2,9.0898145E-3],"categories":[],"categories_nodes":[],"categories_segments":[],"categories_sizes":[],"default_left":[0,0,0,0,0,0,0,0,0,0,0],"id":45,"left_children":[1,3,5,-1,7,-1,9,-1,-1,-1,-1],"loss_changes":[2.0388527E1,8.153904E0,1.3199512E1,0E0,3.0724752E-1,0E0,3.057867E0,0E0,0E0,0E0,0E0],"parents":[2147483647,0,0,1,1,2,2,4,4,6,6],"right_children":[2,4,6,-1,8,-1,10,-1,-1,-1,-1],"split_conditions":[1E0,1.136512E0,-3.0373456E-2,-3.2441206E-2,1.5254738E0,-2.2399569E-2,7.475502E-1,2.5756785E-3,1.8273752E-2,5.8443595E-2,9.0898145E-3],"split_indices":[53,2,2,0,2,0,2,0,0,0,0],"split_type":[0,0,0,0,0,0,0,0,0,0,0],"sum_hessian":[1.9328836E1,1.2815859E1,6.512977E0,9.874515E0,2.9413447E0,1.6807684E0,4.832209E0,1.8908644E0,1.0504802E0,3.3615367E0,1.4706724E0],"tree_param":{"num_deleted":"0","num_feature":"108","num_nodes":"11","size_leaf_vector":"1"}},{"base_weights":[-2.3069046E-2,-1.4712396E0,5.153081E-1,-5.4101445E-2,8.856899E-3,7.579011E-1,-3.8741928E-2,-1.6651572E-1,1.2314115E0,-5.1723534E-1,1.5527113E-2,3.3897657E-2,8.856899E-3,6.6565454E-2,-3.577322E-2,-7.6218806E-3,8.856899E-3],"categories":[],"categories_nodes":[],"categories_segments":[],"categories_sizes":[],"default_left":[0,0,0,0,0,0,0,0,0,0,0,0,0,0,0,0,0],"id":46,"left_children":[1,3,5,-1,-1,7,-1,9,11,13,-1,-1,-1,15,-1,-1,-1],"loss_changes":[2.1142712E1,1.0056389E1,1.1093481E1,0E0,0E0,8.254858E0,0E0,2.2852464E0,8.606167E-1,3.0104008E0,0E0,0E0,0E0,5.664766E-1,0E0,0E0,0E0],"parents":[2147483647,0,0,1,1,2,2,5,5,7,7,8,8,9,9,13,13],"right_children":[2,4,6,-1,-1,8,-1,10,12,14,-1,-1,-1,16,-1,-1,-1],"split_conditions":[-2.6575398E-1,1E0,1E0,-5.4101445E-2,8.856899E-3,3.5858837E-1,-3.8741928E-2,1E0,6.0949594E-1,1E0,1.5527113E-2,3.3897657E-2,8.856899E-3,2.4480847E-1,-3.577322E-2,-7.6218806E-3,8.856899E-3],"split_indices":[0,27,12,0,0,2,0,42,0,31,0,0,0,0,0,0,0],"split_type":[0,0,0,0,0,0,0,0,0,0,0,0,0,0,0,0,0],"sum_hessian":[2.5145397E1,6.3451004E0,1.8800297E1,4.4650707E0,1.8800297E0,1.7390274E1,1.4100223E0,6.1100965E0,1.1280178E1,4.4650707E0,1.645026E0,9.400148E0,1.8800297E0,3.290052E0,1.1750185E0,1.4100223E0,1.8800297E0],"tree_param":{"num_deleted":"0","num_feature":"108","num_nodes":"17","size_leaf_vector":"1"}},{"base_weights":[-2.3069046E-2,-1.2076478E0,6.874318E-1,-1.5077448E0,-2.3627423E-1,1.1155285E0,-7.374252E-1,-5.078278E-2,-1.581817E-2,-1.2907557E-3,-7.6218806E-3,4.2870277E-1,3.3442035E-2,1.5527113E-2,-4.32259E-2,-1.2827997E-2,2.72699E-2],"categories":[],"categories_nodes":[],"categories_segments":[],"categories_sizes":[],"default_left":[0,0,0,0,0,0,0,0,0,0,0,0,0,0,0,0,0],"id":47,"left_children":[1,3,5,7,9,11,13,-1,-1,-1,-1,15,-1,-1,-1,-1,-1],"loss_changes":[2.2835297E1,2.6069613E0,1.1180175E1,2.1874084E0,2.9670075E-2,1.4795303E0,7.1696386E0,0E0,0E0,0E0,0E0,3.5279603E0,0E0,0E0,0E0,0E0,0E0],"parents":[2147483647,0,0,1,1,2,2,3,3,4,4,5,5,6,6,11,11],"right_children":[2,4,6,8,10,12,14,-1,-1,-1,-1,16,-1,-1,-1,-1,-1],"split_conditions":[7.475502E-1,1E0,1E0,1E0,1E0,1E0,1E0,-5.078278E-2,-1.581817E-2,-1.2907557E-3,-7.6218806E-3,1.5254738E0,3.3442035E-2,1.5527113E-2,-4.32259E-2,-1.2827997E-2,2.72699E-2],"split_indices":[2,53,48,60,60,10,60,0,0,0,0,2,0,0,0,0,0],"split_type":[0,0,0,0,0,0,0,0,0,0,0,0,0,0,0,0,0],"sum_hessian":[2.5145397E1,9.165145E0,1.5980252E1,6.580104E0,2.5850408E0,1.2455196E1,3.5250556E0,3.290052E0,3.290052E0,1.1750185E0,1.4100223E0,3.7600594E0,8.695137E0,1.645026E0,1.8800297E0,1.645026E0,2.1150334E0],"tree_param":{"num_deleted":"0","num_feature":"108","num_nodes":"17","size_leaf_vector":"1"}},{"base_weights":[-1.6984688E-1,1.9682549E-2,-2.0198105E-2],"categories":[],"categories_nodes":[],"categories_segments":[],"categories_sizes":[],"default_left":[0,0,0],"id":48,"left_children":[1,-1,-1],"loss_changes":[3.0564327E0,0E0,0E0],"parents":[2147483647,0,0],"right_children":[2,-1,-1],"split_conditions":[-7.549613E-1,1.9682549E-2,-2.0198105E-2],"split_indices":[1,0,0],"split_type":[0,0,0],"sum_hessian":[2.9630163E0,1.0916376E0,1.8713787E0],"tree_param":{"num_deleted":"0","num_feature":"108","num_nodes":"3","size_leaf_vector":"1"}},{"base_weights":[-2.1035077E-1,-1.957825E-2,1.3106822E-2],"categories":[],"categories_nodes":[],"categories_segments":[],"categories_sizes":[],"default_left":[0,0,0],"id":49,"left_children":[1,-1,-1],"loss_changes":[2.14374E0,0E0,0E0],"parents":[2147483647,0,0],"right_children":[2,-1,-1],"split_conditions":[1E0,-1.957825E-2,1.3106822E-2],"split_indices":[45,0,0],"split_type":[0,0,0],"sum_hessian":[3.1189644E0,1.7154305E0,1.4035339E0],"tree_param":{"num_deleted":"0","num_feature":"108","num_nodes":"3","size_leaf_vector":"1"}},{"base_weights":[-3.1131068E-1,-6.185402E-1,2.5781755E0,-8.6512506E-1,6.879387E-2,3.0807462E0,-1.813972E-2,-1.0336702E0,-2.9041973E-1,-2.940512E-1,1.9639028E0,1.3719143E0,9.804895E-2,-1.0766009E0,1.0319962E-2,-5.260429E-1,3.550689E-2,-2.6654227E-2,-1.3003305E-2,7.376838E-1,7.529735E-2,-8.2071856E-2,7.529735E-2,5.8242097E-3,-1.1211255E0,-6.4794225E-1,1.6065242E-2,4.3482867E-1,-5.221376E-1,3.956558E-2,-1.6215721E-2,-1.8925657E-2,1.9581398E-2,-2.9178116E-2,-4.3337E-3,-1.972225E-2,1.6065242E-2,1.9059438E-2,-2.0241134E-2,-2.7377058E-2,3.956558E-2],"categories":[],"categories_nodes":[],"categories_segments":[],"categories_sizes":[],"default_left":[0,0,0,0,0,0,0,0,0,0,0,0,0,0,0,0,0,0,0,0,0,0,0,0,0,0,0,0,0,0,0,0,0,0,0,0,0,0,0,0,0],"id":50,"left_children":[1,3,5,7,9,11,-1,13,15,17,19,21,-1,23,-1,25,-1,-1,27,29,-1,31,-1,-1,33,35,-1,37,39,-1,-1,-1,-1,-1,-1,-1,-1,-1,-1,-1,-1],"loss_changes":[1.1164608E2,1.9187855E1,2.2338943E1,7.7526245E0,2.1705118E1,1.0000282E1,0E0,4.411995E0,8.906738E0,5.7708874E0,4.2904625E0,1.2331079E1,0E0,3.8954086E0,0E0,3.0550175E0,0E0,0E0,4.9139633E0,5.313241E0,0E0,2.7303758E0,0E0,0E0,2.4331436E0,3.6484861E0,0E0,5.2976427E0,1.3881484E1,0E0,0E0,0E0,0E0,0E0,0E0,0E0,0E0,0E0,0E0,0E0,0E0],"parents":[2147483647,0,0,1,1,2,2,3,3,4,4,5,5,7,7,8,8,9,9,10,10,11,11,13,13,15,15,18,18,19,19,21,21,24,24,25,25,27,27,28,28],"right_children":[2,4,6,8,10,12,-1,14,16,18,20,22,-1,24,-1,26,-1,-1,28,30,-1,32,-1,-1,34,36,-1,38,40,-1,-1,-1,-1,-1,-1,-1,-1,-1,-1,-1,-1],"split_conditions":[1.136512E0,1.7187098E-1,1E0,1E0,1E0,2.5995985E-2,-1.813972E-2,1E0,1.0957364E0,-1.1478864E-1,5.308247E-1,1E0,9.804895E-2,-9.8102504E-1,1.0319962E-2,2.5353258E0,3.550689E-2,-2.6654227E-2,5.211395E-1,5.3655845E-1,7.529735E-2,1.5412626E0,7.529735E-2,5.8242097E-3,1E0,1E0,1.6065242E-2,1.0471209E0,1.4118084E0,3.956558E-2,-1.6215721E-2,-1.8925657E-2,1.9581398E-2,-2.9178116E-2,-4.3337E-3,-1.972225E-2,1.6065242E-2,1.9059438E-2,-2.0241134E-2,-2.7377058E-2,3.956558E-2],"split_indices":[2,0,64,26,30,0,0,23,5,5,5,50,0,1,0,1,0,0,1,0,0,1,0,0,12,44,0,0,0,0,0,0,0,0,0,0,0,0,0,0,0],"split_type":[0,0,0,0,0,0,0,0,0,0,0,0,0,0,0,0,0,0,0,0,0,0,0,0,0,0,0,0,0,0,0,0,0,0,0,0,0,0,0,0,0],"sum_hessian":[1.2296865E2,1.11860794E2,1.1107855E1,8.213555E1,2.9725246E1,9.699817E0,1.4080379E0,6.289236E1,1.9243185E1,2.5657581E1,4.067665E0,4.067665E0,5.6321516E0,6.1327877E1,1.5644866E0,1.7522251E1,1.7209353E0,6.1014977E0,1.9556084E1,2.6596272E0,1.4080379E0,2.6596272E0,1.4080379E0,1.877384E0,5.9450493E1,1.627066E1,1.2515893E0,1.048206E1,9.074022E0,1.5644866E0,1.0951407E0,1.5644866E0,1.0951407E0,5.6477966E1,2.9725246E0,1.5019072E1,1.2515893E0,8.604676E0,1.877384E0,7.509536E0,1.5644866E0],"tree_param":{"num_deleted":"0","num_feature":"108","num_nodes":"41","size_leaf_vector":"1"}},{"base_weights":[-2.633844E-1,-4.8877165E-1,9.5074385E-2,-6.9373345E-1,1.7668085E0,-7.4105376E-1,4.415166E-2,8.6255506E-2,-3.53672E-2,-8.077755E-1,9.129108E-1,-1.8925657E-2,3.8924047E-1,-1.1182688E0,-4.148915E-1,-1.6215721E-2,3.8935985E-2,2.2103281E-3,1.6065242E-2,-2.914229E-2,-2.0517965E-3,-1.880356E-2,7.247968E-3],"categories":[],"categories_nodes":[],"categories_segments":[],"categories_sizes":[],"default_left":[0,0,0,0,0,0,0,0,0,0,0,0,0,0,0,0,0,0,0,0,0,0,0],"id":51,"left_children":[1,3,-1,5,7,9,-1,-1,11,13,15,-1,17,19,21,-1,-1,-1,-1,-1,-1,-1,-1],"loss_changes":[1.18344475E2,5.7307804E1,0E0,1.4336304E1,3.1633904E1,1.293325E1,0E0,0E0,2.1351452E0,1.2559372E1,5.795669E0,0E0,2.8174603E-1,2.8056412E0,1.179795E1,0E0,0E0,0E0,0E0,0E0,0E0,0E0,0E0],"parents":[2147483647,0,0,1,1,3,3,4,4,5,5,8,8,9,9,10,10,12,12,13,13,14,14],"right_children":[2,4,-1,6,8,10,-1,-1,12,14,16,-1,18,20,22,-1,-1,-1,-1,-1,-1,-1,-1],"split_conditions":[4.4376782E-1,1.136512E0,9.5074385E-2,1E0,1E0,1E0,4.415166E-2,8.6255506E-2,1E0,1E0,1E0,-1.8925657E-2,1E0,1E0,-4.1933528E-1,-1.6215721E-2,3.8935985E-2,2.2103281E-3,1.6065242E-2,-2.914229E-2,-2.0517965E-3,-1.880356E-2,7.247968E-3],"split_indices":[3,2,0,11,10,58,0,0,65,53,10,0,54,48,2,0,0,0,0,0,0,0,0],"split_type":[0,0,0,0,0,0,0,0,0,0,0,0,0,0,0,0,0,0,0,0,0,0,0],"sum_hessian":[1.2609762E2,1.2030902E2,5.7886004E0,1.10922104E2,9.38692E0,1.0951406E2,1.4080379E0,4.380563E0,5.006357E0,1.0575929E2,3.754768E0,1.5644866E0,3.4418707E0,5.8042454E1,4.7716843E1,1.0951407E0,2.6596272E0,2.1902814E0,1.2515893E0,5.5382828E1,2.6596272E0,3.2228424E1,1.5488418E1],"tree_param":{"num_deleted":"0","num_feature":"108","num_nodes":"23","size_leaf_vector":"1"}},{"base_weights":[-7.054047E-2,-5.821443E-1,8.2328427E-1,1.8066077E-2,-2.6098961E-2,4.6584576E-2,-1.7448062E-2],"categories":[],"categories_nodes":[],"categories_segments":[],"categories_sizes":[],"default_left":[0,0,0,0,0,0,0],"id":52,"left_children":[1,3,5,-1,-1,-1,-1],"loss_changes":[4.241314E0,4.2601285E0,6.6941967E0,0E0,0E0,0E0,0E0],"parents":[2147483647,0,0,1,1,2,2],"right_children":[2,4,6,-1,-1,-1,-1],"split_conditions":[1.7673547E0,-1.3673988E-1,2.5061505E0,1.8066077E-2,-2.6098961E-2,4.6584576E-2,-1.7448062E-2],"split_indices":[1,1,1,0,0,0,0],"split_type":[0,0,0,0,0,0,0],"sum_hessian":[7.226928E0,4.817952E0,2.408976E0,1.1118351E0,3.706117E0,1.297141E0,1.1118351E0],"tree_param":{"num_deleted":"0","num_feature":"108","num_nodes":"7","size_leaf_vector":"1"}},{"base_weights":[-4.16187E-2,-6.842832E-1,4.6584576E-2,-2.705719E-2,1.3935295E-2],"categories":[],"categories_nodes":[],"categories_segments":[],"categories_sizes":[],"default_left":[0,0,0,0,0],"id":53,"left_children":[1,3,-1,-1,-1],"loss_changes":[1.11202545E1,3.936402E0,0E0,0E0,0E0],"parents":[2147483647,0,0,1,1],"right_children":[2,4,-1,-1,-1],"split_conditions":[1E0,1E0,4.6584576E-2,-2.705719E-2,1.3935295E-2],"split_indices":[8,45,0,0,0],"split_type":[0,0,0,0,0],"sum_hessian":[7.041622E0,5.744481E0,1.297141E0,4.4473405E0,1.297141E0],"tree_param":{"num_deleted":"0","num_feature":"108","num_nodes":"5","size_leaf_vector":"1"}},{"base_weights":[-9.467403E-2,-1.9588994E-2,2.0403411E-2],"categories":[],"categories_nodes":[],"categories_segments":[],"categories_sizes":[],"default_left":[0,0,0],"id":54,"left_children":[1,-1,-1],"loss_changes":[2.8961403E0,0E0,0E0],"parents":[2147483647,0,0],"right_children":[2,-1,-1],"split_conditions":[3.1774595E-1,-1.9588994E-2,2.0403411E-2],"split_indices":[0,0,0],"split_type":[0,0,0],"sum_hessian":[2.596572E0,1.5579431E0,1.0386288E0],"tree_param":{"num_deleted":"0","num_feature":"108","num_nodes":"3","size_leaf_vector":"1"}},{"base_weights":[-1.4940329E-1,-1.9588994E-2,1.6289249E-2],"categories":[],"categories_nodes":[],"categories_segments":[],"categories_sizes":[],"default_left":[0,0,0],"id":55,"left_children":[1,-1,-1],"loss_changes":[2.4253223E0,0E0,0E0],"parents":[2147483647,0,0],"right_children":[2,-1,-1],"split_conditions":[1E0,-1.9588994E-2,1.6289249E-2],"split_indices":[30,0,0],"split_type":[0,0,0],"sum_hessian":[2.7696767E0,1.5579431E0,1.2117336E0],"tree_param":{"num_deleted":"0","num_feature":"108","num_nodes":"3","size_leaf_vector":"1"}},{"base_weights":[8.717084E-2,-5.8065593E-1,1.4758847E0,-9.6215147E-1,3.9117567E-2,4.348104E-2,7.913445E-3,-1.1516958E0,3.6740878E-3,-3.543028E-2,7.913445E-3],"categories":[],"categories_nodes":[],"categories_segments":[],"categories_sizes":[],"default_left":[0,0,0,0,0,0,0,0,0,0,0],"id":56,"left_children":[1,3,5,7,-1,-1,-1,9,-1,-1,-1],"loss_changes":[1.8272106E1,1.2470869E1,1.3974781E0,2.6907768E0,0E0,0E0,0E0,4.486103E0,0E0,0E0,0E0],"parents":[2147483647,0,0,1,1,2,2,3,3,7,7],"right_children":[2,4,6,8,-1,-1,-1,10,-1,-1,-1],"split_conditions":[7.729297E-1,1E0,1.3016291E0,3.5858837E-1,3.9117567E-2,4.348104E-2,7.913445E-3,3.694214E-1,3.6740878E-3,-3.543028E-2,7.913445E-3],"split_indices":[5,42,1,2,0,0,0,5,0,0,0],"split_type":[0,0,0,0,0,0,0,0,0,0,0],"sum_hessian":[1.7778028E1,1.2397836E1,5.3801928E0,1.0994307E1,1.4035286E0,3.9766643E0,1.4035286E0,9.356857E0,1.63745E0,7.9533286E0,1.4035286E0],"tree_param":{"num_deleted":"0","num_feature":"108","num_nodes":"11","size_leaf_vector":"1"}},{"base_weights":[1.301622E-1,-7.5135833E-1,4.669133E-1,7.913445E-3,-3.0014906E-2,7.430725E-1,-2.476247E-2,1.0555722E0,-3.0930424E-1,1.3974457E0,-2.8885244E-3,7.913445E-3,-2.1501515E-2,3.9819375E-2,7.913445E-3],"categories":[],"categories_nodes":[],"categories_segments":[],"categories_sizes":[],"default_left":[0,0,0,0,0,0,0,0,0,0,0,0,0,0,0],"id":57,"left_children":[1,3,5,-1,-1,7,-1,9,11,13,-1,-1,-1,-1,-1],"loss_changes":[5.786252E0,2.9919784E0,6.316641E0,0E0,0E0,4.347957E0,0E0,4.0270967E0,1.5038532E0,1.089839E0,0E0,0E0,0E0,0E0,0E0],"parents":[2147483647,0,0,1,1,2,2,5,5,7,7,8,8,9,9],"right_children":[2,4,6,-1,-1,8,-1,10,12,14,-1,-1,-1,-1,-1],"split_conditions":[-1.5862207E0,-2.3641443E0,1E0,7.913445E-3,-3.0014906E-2,1E0,-2.476247E-2,1E0,1E0,1E0,-2.8885244E-3,7.913445E-3,-2.1501515E-2,3.9819375E-2,7.913445E-3],"split_indices":[2,2,54,0,0,41,0,35,26,45,0,0,0,0,0],"split_type":[0,0,0,0,0,0,0,0,0,0,0,0,0,0,0],"sum_hessian":[1.7310186E1,4.444507E0,1.2865679E1,1.4035286E0,3.0409784E0,1.1228229E1,1.63745E0,8.655093E0,2.5731356E0,6.5498E0,2.1052928E0,1.4035286E0,1.1696072E0,5.146271E0,1.4035286E0],"tree_param":{"num_deleted":"0","num_feature":"108","num_nodes":"15","size_leaf_vector":"1"}},{"base_weights":[-1.8891747E-1,1.9131273E-2,-2.043401E-2],"categories":[],"categories_nodes":[],"categories_segments":[],"categories_sizes":[],"default_left":[0,0,0],"id":58,"left_children":[1,-1,-1],"loss_changes":[3.0330496E0,0E0,0E0],"parents":[2147483647,0,0],"right_children":[2,-1,-1],"split_conditions":[-4.8456648E-1,1.9131273E-2,-2.043401E-2],"split_indices":[0,0,0],"split_type":[0,0,0],"sum_hessian":[3.0150127E0,1.1107942E0,1.9042186E0],"tree_param":{"num_deleted":"0","num_feature":"108","num_nodes":"3","size_leaf_vector":"1"}},{"base_weights":[-1.8891747E-1,1.9131273E-2,-2.043401E-2],"categories":[],"categories_nodes":[],"categories_segments":[],"categories_sizes":[],"default_left":[0,0,0],"id":59,"left_children":[1,-1,-1],"loss_changes":[3.0330496E0,0E0,0E0],"parents":[2147483647,0,0],"right_children":[2,-1,-1],"split_conditions":[-8.082971E-1,1.9131273E-2,-2.043401E-2],"split_indices":[2,0,0],"split_type":[0,0,0],"sum_hessian":[3.0150127E0,1.1107942E0,1.9042186E0],"tree_param":{"num_deleted":"0","num_feature":"108","num_nodes":"3","size_leaf_vector":"1"}},{"base_weights":[-2.6246175E-2,5.883276E-1,-2.7565682E-2,1.0888412E0,-2.2542005E-2,-1.9007338E-2,1.5697309E0,1.9588803E0,6.7979707E-3,5.822845E-2,1.3333388E-2],"categories":[],"categories_nodes":[],"categories_segments":[],"categories_sizes":[],"default_left":[0,0,0,0,0,0,0,0,0,0,0],"id":60,"left_children":[1,3,-1,5,-1,-1,7,9,-1,-1,-1],"loss_changes":[1.0409953E1,8.473012E0,0E0,8.282539E0,0E0,0E0,2.827446E0,1.3742771E0,0E0,0E0,0E0],"parents":[2147483647,0,0,1,1,3,3,6,6,7,7],"right_children":[2,4,-1,6,-1,-1,8,10,-1,-1,-1],"split_conditions":[-3.2981217E-1,3.9068344E-1,-2.7565682E-2,-1.141004E0,-2.2542005E-2,-1.9007338E-2,1E0,7.475502E-1,6.7979707E-3,5.822845E-2,1.3333388E-2],"split_indices":[1,0,0,0,0,0,64,2,0,0,0],"split_type":[0,0,0,0,0,0,0,0,0,0,0],"sum_hessian":[1.3755883E1,9.044965E0,4.710919E0,6.9721603E0,2.0728045E0,1.3190573E0,5.653103E0,3.9571722E0,1.6959308E0,2.6381147E0,1.3190573E0],"tree_param":{"num_deleted":"0","num_feature":"108","num_nodes":"11","size_leaf_vector":"1"}},{"base_weights":[-9.295032E-3,-5.62745E-1,8.5404074E-1,1.975222E-2,-2.866361E-2,-1.7732905E-2,3.3842415E-2],"categories":[],"categories_nodes":[],"categories_segments":[],"categories_sizes":[],"default_left":[0,0,0,0,0,0,0],"id":61,"left_children":[1,3,5,-1,-1,-1,-1],"loss_changes":[7.4411254E0,8.392747E0,5.715619E0,0E0,0E0,0E0,0E0],"parents":[2147483647,0,0,1,1,2,2],"right_children":[2,4,6,-1,-1,-1,-1],"split_conditions":[1E0,-8.082971E-1,1E0,1.975222E-2,-2.866361E-2,-1.7732905E-2,3.3842415E-2],"split_indices":[53,2,10,0,0,0,0],"split_type":[0,0,0,0,0,0,0],"sum_hessian":[1.3567447E1,8.479654E0,5.0877924E0,2.449678E0,6.0299764E0,1.1306206E0,3.9571722E0],"tree_param":{"num_deleted":"0","num_feature":"108","num_nodes":"7","size_leaf_vector":"1"}},{"base_weights":[-1.07008114E-1,-6.0510594E-1,6.336119E-1,-9.732309E-6,-3.155945E-2,-2.3625016E-2,9.859447E-1,-2.7308786E-2,5.99202E-1,1.2625508E0,-1.9390222E-2,1.0260777E0,-2.0716447E-2,5.008448E-2,8.525196E-1,-1.7795313E-2,1.4622653E0,4.5195565E-2,3.9516915E-2,5.008448E-2,1.53339645E-2,1.8325254E-2,-2.183661E-2],"categories":[],"categories_nodes":[],"categories_segments":[],"categories_sizes":[],"default_left":[0,0,0,0,0,0,0,0,0,0,0,0,0,0,0,0,0,0,0,0,0,0,0],"id":62,"left_children":[1,3,5,7,-1,-1,9,-1,11,13,-1,15,-1,-1,17,-1,19,21,-1,-1,-1,-1,-1],"loss_changes":[1.2715726E1,8.152691E0,8.680042E0,8.295112E0,0E0,0E0,6.767061E0,0E0,5.838468E0,1.5261993E0,0E0,6.1554437E0,0E0,0E0,4.9808164E0,0E0,1.3990927E0,3.8659732E0,0E0,0E0,0E0,0E0,0E0],"parents":[2147483647,0,0,1,1,2,2,3,3,6,6,8,8,9,9,11,11,14,14,16,16,17,17],"right_children":[2,4,6,8,-1,-1,10,-1,12,14,-1,16,-1,-1,18,-1,20,22,-1,-1,-1,-1,-1],"split_conditions":[-3.0373456E-2,6.22129E-2,-8.4925395E-1,-3.4583443E-1,-3.155945E-2,-2.3625016E-2,1E0,-2.7308786E-2,1E0,-5.9812856E-1,-1.9390222E-2,-5.5750394E-1,-2.0716447E-2,5.008448E-2,2.5327766E-1,-1.7795313E-2,3.9068344E-1,9.893348E-2,3.9516915E-2,5.008448E-2,1.53339645E-2,1.8325254E-2,-2.183661E-2],"split_indices":[2,1,0,1,0,0,31,0,36,1,0,0,0,0,1,0,0,0,0,0,0,0,0],"split_type":[0,0,0,0,0,0,0,0,0,0,0,0,0,0,0,0,0,0,0,0,0,0,0],"sum_hessian":[3.242988E1,1.9498978E1,1.2930901E1,1.0673124E1,8.825853E0,2.0525239E0,1.0878377E1,3.4892907E0,7.1838336E0,9.646862E0,1.2315143E0,5.747067E0,1.4367667E0,2.0525239E0,7.5943384E0,1.0262619E0,4.720805E0,4.1050477E0,3.4892907E0,2.0525239E0,2.668281E0,2.4630287E0,1.6420192E0],"tree_param":{"num_deleted":"0","num_feature":"108","num_nodes":"23","size_leaf_vector":"1"}},{"base_weights":[-2.5738921E-2,-4.566839E-1,6.8205E-2,-7.6533073E-1,1.1190068E0,5.8144015E-1,-1.1838455E0,3.2021847E-2,1.0062042E-2,-2.498943E-2,1.7237428E0,-3.323053E-2,1.0062042E-2,1.0062042E-2,5.6227744E-2],"categories":[],"categories_nodes":[],"categories_segments":[],"categories_sizes":[],"default_left":[0,0,0,0,0,0,0,0,0,0,0,0,0,0,0],"id":63,"left_children":[1,3,-1,5,7,9,11,-1,-1,-1,13,-1,-1,-1,-1],"loss_changes":[4.1163975E1,1.5417472E1,0E0,1.5134683E1,1.0036993E-1,1.390822E1,5.1203213E0,0E0,0E0,0E0,2.0685272E0,0E0,0E0,0E0,0E0],"parents":[2147483647,0,0,1,1,3,3,4,4,5,5,6,6,10,10],"right_children":[2,4,-1,6,8,10,12,-1,-1,-1,14,-1,-1,-1,-1],"split_conditions":[5.500488E-1,1E0,6.8205E-2,1E0,7.475502E-1,1E0,1E0,3.2021847E-2,1.0062042E-2,-2.498943E-2,-3.0373456E-2,-3.323053E-2,1.0062042E-2,1.0062042E-2,5.6227744E-2],"split_indices":[3,58,0,10,2,53,44,0,0,0,2,0,0,0,0],"split_type":[0,0,0,0,0,0,0,0,0,0,0,0,0,0,0],"sum_hessian":[3.263513E1,2.8940588E1,3.694543E0,2.4630287E1,4.3103004E0,5.747067E0,1.888322E1,2.8735335E0,1.4367667E0,2.4630287E0,3.2840383E0,1.7446453E1,1.4367667E0,1.4367667E0,1.8472714E0],"tree_param":{"num_deleted":"0","num_feature":"108","num_nodes":"15","size_leaf_vector":"1"}},{"base_weights":[-1.0271683E-2,-2.0567977E0,9.4240636E-1,-3.3871424E-3,-6.0268592E-2,-2.0176655E-2,3.1211529E-2],"categories":[],"categories_nodes":[],"categories_segments":[],"categories_sizes":[],"default_left":[0,0,0,0,0,0,0],"id":64,"left_children":[1,3,5,-1,-1,-1,-1],"loss_changes":[4.208036E1,4.334503E0,8.897128E0,0E0,0E0,0E0,0E0],"parents":[2147483647,0,0,1,1,2,2],"right_children":[2,4,6,-1,-1,-1,-1],"split_conditions":[-4.8456648E-1,-1.1403956E0,1.136512E0,-3.3871424E-3,-6.0268592E-2,-2.0176655E-2,3.1211529E-2],"split_indices":[0,1,2,0,0,0,0],"split_type":[0,0,0,0,0,0,0],"sum_hessian":[1.9589025E1,5.8541913E0,1.3734834E1,1.1258061E0,4.7283854E0,1.8012897E0,1.1933544E1],"tree_param":{"num_deleted":"0","num_feature":"108","num_nodes":"7","size_leaf_vector":"1"}},{"base_weights":[-2.9513393E-2,5.691251E-1,-5.633486E-2,-4.195741E-2,8.842648E-1,2.9950848E-1,9.887238E-1,-3.3871424E-3,1.3555002E-2,3.20803E-2,5.6933266E-1,1.1488326E-1,2.1970166E-2,6.5967287E-3,-3.3871424E-3],"categories":[],"categories_nodes":[],"categories_segments":[],"categories_sizes":[],"default_left":[0,0,0,0,0,0,0,0,0,0,0,0,0,0,0],"id":65,"left_children":[1,3,-1,-1,5,7,9,-1,-1,-1,11,13,-1,-1,-1],"loss_changes":[2.749362E1,1.3036325E1,0E0,0E0,6.1767197E-1,4.6427155E-1,7.8336716E-1,0E0,0E0,0E0,8.6301494E-1,1.8223679E-1,0E0,0E0,0E0],"parents":[2147483647,0,0,1,1,4,4,5,5,6,6,10,10,11,11],"right_children":[2,4,-1,-1,6,8,10,-1,-1,-1,12,14,-1,-1,-1],"split_conditions":[1E0,1.136512E0,-5.633486E-2,-4.195741E-2,1E0,1E0,1E0,-3.3871424E-3,1.3555002E-2,3.20803E-2,2.3033974E0,1E0,2.1970166E-2,6.5967287E-3,-3.3871424E-3],"split_indices":[35,2,0,0,53,48,48,0,0,0,2,10,0,0,0],"split_type":[0,0,0,0,0,0,0,0,0,0,0,0,0,0,0],"sum_hessian":[1.8688381E1,1.5310963E1,3.377418E0,1.3509673E0,1.3959995E1,2.7019346E0,1.125806E1,1.1258061E0,1.5761285E0,5.403869E0,5.854192E0,2.927096E0,2.927096E0,1.8012897E0,1.1258061E0],"tree_param":{"num_deleted":"0","num_feature":"108","num_nodes":"15","size_leaf_vector":"1"}},{"base_weights":[-5.3881896E-1,-2.727799E-2,5.8616126E-1,2.8852927E-3,1.9945974E-2],"categories":[],"categories_nodes":[],"categories_segments":[],"categories_sizes":[],"default_left":[0,0,0,0,0],"id":66,"left_children":[1,-1,3,-1,-1],"loss_changes":[7.2209616E0,0E0,3.2030523E-1,0E0,0E0],"parents":[2147483647,0,0,2,2],"right_children":[2,-1,4,-1,-1],"split_conditions":[1.136512E0,-2.727799E-2,1.7187098E-1,2.8852927E-3,1.9945974E-2],"split_indices":[2,0,0,0,0],"split_type":[0,0,0,0,0],"sum_hessian":[9.592469E0,6.4540176E0,3.138452E0,1.452799E0,1.685653E0],"tree_param":{"num_deleted":"0","num_feature":"108","num_nodes":"5","size_leaf_vector":"1"}},{"base_weights":[-5.897676E-1,-2.7090847E-2,4.9701583E-1,-1.5187628E-3,1.8466776E-2],"categories":[],"categories_nodes":[],"categories_segments":[],"categories_sizes":[],"default_left":[0,0,0,0,0],"id":67,"left_children":[1,-1,3,-1,-1],"loss_changes":[6.0911074E0,0E0,5.7295215E-1,0E0,0E0],"parents":[2147483647,0,0,2,2],"right_children":[2,-1,4,-1,-1],"split_conditions":[1.136512E0,-2.7090847E-2,1E0,-1.5187628E-3,1.8466776E-2],"split_indices":[2,0,10,0,0],"split_type":[0,0,0,0,0],"sum_hessian":[9.3451805E0,6.427317E0,2.9178634E0,1.1083286E0,1.8095349E0],"tree_param":{"num_deleted":"0","num_feature":"108","num_nodes":"5","size_leaf_vector":"1"}},{"base_weights":[2.02757E0,5.9557885E-1,7.2024845E-2,-1.7926894E-2,3.72388E-2],"categories":[],"categories_nodes":[],"categories_segments":[],"categories_sizes":[],"default_left":[0,0,0,0,0],"id":68,"left_children":[1,3,-1,-1,-1],"loss_changes":[6.387514E0,5.453006E0,0E0,0E0,0E0],"parents":[2147483647,0,0,1,1],"right_children":[2,4,-1,-1,-1],"split_conditions":[9.735322E-1,2.4480847E-1,7.2024845E-2,-1.7926894E-2,3.72388E-2],"split_indices":[1,0,0,0,0],"split_type":[0,0,0,0,0],"sum_hessian":[5.6307244E0,2.736657E0,2.8940675E0,1.1888707E0,1.5477864E0],"tree_param":{"num_deleted":"0","num_feature":"108","num_nodes":"5","size_leaf_vector":"1"}},{"base_weights":[2.1980705E0,2.496134E-2,6.375979E-2],"categories":[],"categories_nodes":[],"categories_segments":[],"categories_sizes":[],"default_left":[0,0,0],"id":69,"left_children":[1,-1,-1],"loss_changes":[4.8373795E-1,0E0,0E0],"parents":[2147483647,0,0],"right_children":[2,-1,-1],"split_conditions":[1E0,2.496134E-2,6.375979E-2],"split_indices":[53,0,0],"split_type":[0,0,0],"sum_hessian":[6.1694984E0,2.2709782E0,3.8985205E0],"tree_param":{"num_deleted":"0","num_feature":"108","num_nodes":"3","size_leaf_vector":"1"}},{"base_weights":[-4.3773675E-1,-8.7464076E-1,4.756091E-2,-2.8295388E-2,1.5079803E-2],"categories":[],"categories_nodes":[],"categories_segments":[],"categories_sizes":[],"default_left":[0,0,0,0,0],"id":70,"left_children":[1,3,-1,-1,-1],"loss_changes":[1.41554575E1,4.8559256E0,0E0,0E0,0E0],"parents":[2147483647,0,0,1,1],"right_children":[2,4,-1,-1,-1],"split_conditions":[1E0,1.0479714E0,4.756091E-2,-2.8295388E-2,1.5079803E-2],"split_indices":[12,1,0,0,0],"split_type":[0,0,0,0,0],"sum_hessian":[1.1217459E1,9.980395E0,1.2370634E0,8.700465E0,1.2799301E0],"tree_param":{"num_deleted":"0","num_feature":"108","num_nodes":"5","size_leaf_vector":"1"}},{"base_weights":[-6.392494E-1,-2.7857712E-2,2.5277749E-2],"categories":[],"categories_nodes":[],"categories_segments":[],"categories_sizes":[],"default_left":[0,0,0],"id":71,"left_children":[1,-1,-1],"loss_changes":[1.0185221E1,0E0,0E0],"parents":[2147483647,0,0],"right_children":[2,-1,-1],"split_conditions":[3.5858837E-1,-2.7857712E-2,2.5277749E-2],"split_indices":[2,0,0],"split_type":[0,0,0],"sum_hessian":[1.0553983E1,8.447238E0,2.106745E0],"tree_param":{"num_deleted":"0","num_feature":"108","num_nodes":"3","size_leaf_vector":"1"}},{"base_weights":[1.4727724E0,-1.9466009E-2,1.6538053E0,3.9205813E-1,1.9423524E0,3.4458738E-2,-6.3061804E-1,2.0847876E0,8.760645E-4,-2.371473E-2,2.6817191E-3,7.381407E-1,5.8538456E-2,1.4313427E0,-1.6537609E-2,5.7818107E-3,4.9290355E-2],"categories":[],"categories_nodes":[],"categories_segments":[],"categories_sizes":[],"default_left":[0,0,0,0,0,0,0,0,0,0,0,0,0,0,0,0,0],"id":72,"left_children":[1,-1,3,5,7,-1,9,11,-1,-1,-1,13,-1,15,-1,-1,-1],"loss_changes":[1.2887077E1,0E0,8.9451065E0,7.1381936E0,5.7531357E0,0E0,9.7864914E-1,5.165436E0,0E0,0E0,0E0,5.4614606E0,0E0,1.7665892E0,0E0,0E0,0E0],"parents":[2147483647,0,0,2,2,3,3,4,4,6,6,7,7,11,11,13,13],"right_children":[2,-1,4,6,8,-1,10,12,-1,-1,-1,14,-1,16,-1,-1,-1],"split_conditions":[-8.4925395E-1,-1.9466009E-2,-7.536829E-1,-1.315457E0,1E0,3.4458738E-2,1.9144356E0,7.475502E-1,8.760645E-4,-2.371473E-2,2.6817191E-3,1E0,5.8538456E-2,1E0,-1.6537609E-2,5.7818107E-3,4.9290355E-2],"split_indices":[0,0,1,1,12,0,2,2,0,0,0,64,0,26,0,0,0],"split_type":[0,0,0,0,0,0,0,0,0,0,0,0,0,0,0,0,0],"sum_hessian":[2.7459105E1,1.7979414E0,2.5661161E1,5.2151785E0,2.0445984E1,2.4777727E0,2.7374055E0,1.8938623E1,1.5073605E0,1.7134813E0,1.0239241E0,3.6531131E0,1.528551E1,2.427967E0,1.2251459E0,1.1970668E0,1.2309003E0],"tree_param":{"num_deleted":"0","num_feature":"108","num_nodes":"17","size_leaf_vector":"1"}},{"base_weights":[1.4644878E0,1.6058686E0,-5.111983E-3,1.746113E0,1.3388664E-1,1.94353E0,2.292671E-2,-7.0137084E-3,1.3643146E-2,1.0192167E0,2.1837487E0,-1.8061738E-2,4.4870097E-2,5.682922E-2,1.4510161E-2],"categories":[],"categories_nodes":[],"categories_segments":[],"categories_sizes":[],"default_left":[0,0,0,0,0,0,0,0,0,0,0,0,0,0,0],"id":73,"left_children":[1,3,-1,5,7,9,-1,-1,-1,11,13,-1,-1,-1,-1],"loss_changes":[7.1576653E0,5.2977524E0,0E0,2.208084E0,7.357907E-1,1.9483032E0,0E0,0E0,0E0,9.068012E0,6.9438934E-1,0E0,0E0,0E0,0E0],"parents":[2147483647,0,0,1,1,3,3,4,4,5,5,9,9,10,10],"right_children":[2,4,-1,6,8,10,-1,-1,-1,12,14,-1,-1,-1,-1],"split_conditions":[1E0,1E0,-5.111983E-3,1E0,1E0,7.475502E-1,2.292671E-2,-7.0137084E-3,1.3643146E-2,1E0,1E0,-1.8061738E-2,4.4870097E-2,5.682922E-2,1.4510161E-2],"split_indices":[30,12,0,48,26,2,0,0,0,65,49,0,0,0,0],"split_type":[0,0,0,0,0,0,0,0,0,0,0,0,0,0,0],"sum_hessian":[2.7942606E1,2.5795258E1,2.147349E0,2.3381346E1,2.4139106E0,1.779871E1,5.582637E0,1.3620588E0,1.051852E0,4.7529993E0,1.3045711E1,1.4855294E0,3.2674701E0,1.1960872E1,1.0848391E0],"tree_param":{"num_deleted":"0","num_feature":"108","num_nodes":"15","size_leaf_vector":"1"}},{"base_weights":[2.9870233E-1,-2.0695316E-2,8.6551976E-1,-1.0535924E-2,3.4367114E-2,-1.5775187E-2,1.5632546E-2],"categories":[],"categories_nodes":[],"categories_segments":[],"categories_sizes":[],"default_left":[0,0,0,0,0,0,0],"id":74,"left_children":[1,-1,3,5,-1,-1,-1],"loss_changes":[5.9985824E0,0E0,2.687317E0,1.6550279E0,0E0,0E0,0E0],"parents":[2147483647,0,0,2,2,3,3],"right_children":[2,-1,4,6,-1,-1,-1],"split_conditions":[-1.928165E-1,-2.0695316E-2,3.694214E-1,-3.0373456E-2,3.4367114E-2,-1.5775187E-2,1.5632546E-2],"split_indices":[0,0,5,2,0,0,0],"split_type":[0,0,0,0,0,0,0],"sum_hessian":[7.272295E0,2.2801597E0,4.9921355E0,2.1949205E0,2.797215E0,1.1147283E0,1.0801922E0],"tree_param":{"num_deleted":"0","num_feature":"108","num_nodes":"7","size_leaf_vector":"1"}},{"base_weights":[5.70762E-1,-1.4960936E-2,8.064903E-1,1.0815113E0,3.659385E-3,7.511367E-3,3.4975007E-2],"categories":[],"categories_nodes":[],"categories_segments":[],"categories_sizes":[],"default_left":[0,0,0,0,0,0,0],"id":75,"left_children":[1,-1,3,5,-1,-1,-1],"loss_changes":[2.8633914E0,0E0,1.2240968E0,8.737726E-1,0E0,0E0,0E0],"parents":[2147483647,0,0,2,2,3,3],"right_children":[2,-1,4,6,-1,-1,-1],"split_conditions":[-4.1933528E-1,-1.4960936E-2,3.5858837E-1,1E0,3.659385E-3,7.511367E-3,3.4975007E-2],"split_indices":[2,0,2,53,0,0,0],"split_type":[0,0,0,0,0,0,0],"sum_hessian":[7.6380324E0,1.0233917E0,6.6146407E0,4.2186666E0,2.395974E0,1.7817411E0,2.4369256E0],"tree_param":{"num_deleted":"0","num_feature":"108","num_nodes":"7","size_leaf_vector":"1"}},{"base_weights":[9.7523254E-1,2.5585769E-2,1.1907924E0,-3.1994152E-1,6.1547168E-2,1.2451006E0,-2.2483302E-2,-5.3889805E-1,3.642564E-2,7.396304E-1,1.4789737E0,-6.717728E-1,2.0227293E-2,2.3697764E-1,1.7915268E0,1.5676156E0,-2.8096145E-1,-2.5692886E-2,-1.8401676E-1,7.2959214E-1,-5.6807154E-1,2.6956182E-3,5.395031E-2,1.9223882E0,1.0802441E0,-2.1287842E-2,1.434759E-2,-2.3632558E-2,7.5276145E-3,-3.1424363E-3,4.9310707E-2,-2.028112E-2,1.0925234E-2,5.1176377E-2,1.0814092E-2,2.980567E-2,-9.420973E-3],"categories":[],"categories_nodes":[],"categories_segments":[],"categories_sizes":[],"default_left":[0,0,0,0,0,0,0,0,0,0,0,0,0,0,0,0,0,0,0,0,0,0,0,0,0,0,0,0,0,0,0,0,0,0,0,0,0],"id":76,"left_children":[1,3,5,7,-1,9,-1,11,-1,13,15,17,-1,19,21,23,25,-1,27,29,31,-1,-1,33,35,-1,-1,-1,-1,-1,-1,-1,-1,-1,-1,-1,-1],"loss_changes":[2.2641434E1,1.8895847E1,1.1363281E1,8.459446E0,0E0,9.353622E0,0E0,3.8195877E0,0E0,1.5414412E1,9.710266E0,2.796267E0,0E0,8.910157E0,5.6500874E0,7.7311096E0,2.2920284E0,0E0,3.4137201E0,1.4840487E1,2.4795465E0,0E0,0E0,4.9733276E0,4.7207985E0,0E0,0E0,0E0,0E0,0E0,0E0,0E0,0E0,0E0,0E0,0E0,0E0],"parents":[2147483647,0,0,1,1,2,2,3,3,5,5,7,7,9,9,10,10,11,11,13,13,14,14,15,15,16,16,18,18,19,19,20,20,23,23,24,24],"right_children":[2,4,6,8,-1,10,-1,12,-1,14,16,18,-1,20,22,24,26,-1,28,30,32,-1,-1,34,36,-1,-1,-1,-1,-1,-1,-1,-1,-1,-1,-1,-1],"split_conditions":[-3.3869147E-1,1E0,1E0,1E0,6.1547168E-2,3.5858837E-1,-2.2483302E-2,2.0463526E0,3.642564E-2,1E0,1E0,1.136512E0,2.0227293E-2,-3.9621383E-2,1.7187098E-1,2.887197E-1,1E0,-2.5692886E-2,-7.7631646E-1,-3.093487E-1,1.3020457E0,2.6956182E-3,5.395031E-2,1E0,1E0,-2.1287842E-2,1.434759E-2,-2.3632558E-2,7.5276145E-3,-3.1424363E-3,4.9310707E-2,-2.028112E-2,1.0925234E-2,5.1176377E-2,1.0814092E-2,2.980567E-2,-9.420973E-3],"split_indices":[0,58,36,44,0,2,0,1,0,41,31,2,0,1,0,5,57,0,0,1,1,0,0,61,12,0,0,0,0,0,0,0,0,0,0,0,0],"split_type":[0,0,0,0,0,0,0,0,0,0,0,0,0,0,0,0,0,0,0,0,0,0,0,0,0,0,0,0,0,0,0,0,0,0,0,0,0],"sum_hessian":[1.09753624E2,2.0511055E1,8.924257E1,1.8724184E1,1.7868718E0,8.737653E1,1.8660345E0,1.7290405E1,1.4337791E0,2.8956131E1,5.8420403E1,1.6195612E1,1.094793E0,2.0422464E1,8.533667E0,5.5723095E1,2.697304E0,8.722958E0,7.472654E0,1.2727909E1,7.6945558E0,1.7568033E0,6.7768636E0,3.054446E1,2.5178637E1,1.6200044E0,1.0772995E0,2.5392697E0,4.9333844E0,8.071892E0,4.6560173E0,6.35086E0,1.3436959E0,2.7840754E1,2.7037065E0,2.355046E1,1.6281754E0],"tree_param":{"num_deleted":"0","num_feature":"108","num_nodes":"37","size_leaf_vector":"1"}},{"base_weights":[1.0255499E0,7.897473E-1,5.6081947E-2,6.036148E-1,1.7237828E0,-3.1978643E-1,8.763548E-1,1.8942537E0,1.4556532E-2,-5.8122563E-1,4.086707E-2,2.582349E-1,1.258669E0,2.266105E0,1.1014606E0,-6.93243E-1,1.5226214E-2,4.635933E-1,-2.23571E-2,1.3349521E0,3.6532912E-1,6.246237E-2,1.4370548E-2,4.0319203E-3,3.5121612E-2,-2.0967152E-2,9.209882E-3,1.52217E-2,-2.2796383E-2,3.4551784E-2,2.7992022E-3,-2.6350928E-2,3.352217E-2],"categories":[],"categories_nodes":[],"categories_segments":[],"categories_sizes":[],"default_left":[0,0,0,0,0,0,0,0,0,0,0,0,0,0,0,0,0,0,0,0,0,0,0,0,0,0,0,0,0,0,0,0,0],"id":77,"left_children":[1,3,-1,5,7,9,11,13,-1,15,-1,17,19,21,23,25,-1,27,-1,29,31,-1,-1,-1,-1,-1,-1,-1,-1,-1,-1,-1,-1],"loss_changes":[3.0717468E1,1.5707546E1,0E0,2.0897924E1,1.9071503E0,1.0862682E1,1.4673023E1,1.3407402E0,0E0,2.801949E0,0E0,6.452651E0,2.1669197E0,1.67416E0,1.5138125E0,2.9000378E0,0E0,5.013521E0,0E0,1.8917236E0,7.5632896E0,0E0,0E0,0E0,0E0,0E0,0E0,0E0,0E0,0E0,0E0,0E0,0E0],"parents":[2147483647,0,0,1,1,3,3,4,4,5,5,6,6,7,7,9,9,11,11,12,12,13,13,14,14,15,15,17,17,19,19,20,20],"right_children":[2,4,-1,6,8,10,12,14,-1,16,-1,18,20,22,24,26,-1,28,-1,30,32,-1,-1,-1,-1,-1,-1,-1,-1,-1,-1,-1,-1],"split_conditions":[5.500488E-1,1E0,5.6081947E-2,-3.0373456E-2,7.475502E-1,1E0,1E0,1E0,1.4556532E-2,1E0,4.086707E-2,1E0,1E0,1E0,1E0,1E0,1.5226214E-2,1E0,-2.23571E-2,-6.509277E-2,1.5254738E0,6.246237E-2,1.4370548E-2,4.0319203E-3,3.5121612E-2,-2.0967152E-2,9.209882E-3,1.52217E-2,-2.2796383E-2,3.4551784E-2,2.7992022E-3,-2.6350928E-2,3.352217E-2],"split_indices":[3,41,0,2,2,58,53,30,0,48,0,56,12,61,10,56,0,8,0,3,2,0,0,0,0,0,0,0,0,0,0,0,0],"split_type":[0,0,0,0,0,0,0,0,0,0,0,0,0,0,0,0,0,0,0,0,0,0,0,0,0,0,0,0,0,0,0,0,0],"sum_hessian":[1.1214587E2,9.5333824E1,1.681204E1,8.08654E1,1.4468429E1,1.8399315E1,6.2466084E1,1.2014771E1,2.453657E0,1.6848232E1,1.5510832E0,2.451158E1,3.7954502E1,6.913627E0,5.1011443E0,1.5780681E1,1.0675522E0,2.131193E1,3.199651E0,3.451306E1,3.44144E0,5.6588044E0,1.2548227E0,1.6182114E0,3.482933E0,1.4063946E1,1.7167345E0,1.978009E1,1.5318393E0,3.3107418E1,1.4056468E0,1.3690807E0,2.0723596E0],"tree_param":{"num_deleted":"0","num_feature":"108","num_nodes":"33","size_leaf_vector":"1"}},{"base_weights":[1.5079424E0,2.3132588E-3,1.6739215E0,7.522262E-3,1.8441511E0,2.0132616E0,9.233368E-3,5.884392E-2,1.7968874E-2],"categories":[],"categories_nodes":[],"categories_segments":[],"categories_sizes":[],"default_left":[0,0,0,0,0,0,0,0,0],"id":78,"left_children":[1,-1,3,-1,5,7,-1,-1,-1],"loss_changes":[2.5668983E0,0E0,1.8551311E0,0E0,1.4957905E0,1.7596741E0,0E0,0E0,0E0],"parents":[2147483647,0,0,2,2,4,4,5,5],"right_children":[2,-1,4,-1,6,8,-1,-1,-1],"split_conditions":[-7.0429033E-1,2.3132588E-3,-7.03379E-1,7.522262E-3,1E0,7.729297E-1,9.233368E-3,5.884392E-2,1.7968874E-2],"split_indices":[1,0,0,0,31,5,0,0,0],"split_type":[0,0,0,0,0,0,0,0,0],"sum_hessian":[1.0585591E1,1.2745075E0,9.311084E0,1.3323369E0,7.9787474E0,6.830439E0,1.1483085E0,4.7601166E0,2.0703223E0],"tree_param":{"num_deleted":"0","num_feature":"108","num_nodes":"9","size_leaf_vector":"1"}},{"base_weights":[1.5734283E0,6.844677E-2,5.5951316E-2,-2.2027543E-2,2.5945405E-2],"categories":[],"categories_nodes":[],"categories_segments":[],"categories_sizes":[],"default_left":[0,0,0,0,0],"id":79,"left_children":[1,3,-1,-1,-1],"loss_changes":[1.1352648E1,5.1074133E0,0E0,0E0,0E0],"parents":[2147483647,0,0,1,1],"right_children":[2,4,-1,-1,-1],"split_conditions":[1E0,1.5254738E0,5.5951316E-2,-2.2027543E-2,2.5945405E-2],"split_indices":[53,2,0,0,0],"split_type":[0,0,0,0,0],"sum_hessian":[1.050299E1,3.5553064E0,6.9476833E0,1.8420137E0,1.7132927E0],"tree_param":{"num_deleted":"0","num_feature":"108","num_nodes":"5","size_leaf_vector":"1"}},{"base_weights":[1.2440072E0,1.4341512E0,-4.2419657E-1,4.8554054E-1,1.9377335E0,1.9096492E-2,-2.3690488E-2,-2.4056878E-2,1.1554761E0,2.0144954E0,1.7908515E-2,1.2967669E0,7.9570117E-4,2.0814347E0,8.50268E-3,8.646492E-1,4.244051E-2,2.1710477E0,2.1190679E-2,3.3903737E-2,1.1435448E-2,6.4077675E-2,3.671298E-2],"categories":[],"categories_nodes":[],"categories_segments":[],"categories_sizes":[],"default_left":[0,0,0,0,0,0,0,0,0,0,0,0,0,0,0,0,0,0,0,0,0,0,0],"id":80,"left_children":[1,3,5,7,9,-1,-1,-1,11,13,-1,15,-1,17,-1,19,-1,21,-1,-1,-1,-1,-1],"loss_changes":[1.426683E1,1.763327E1,3.9435358E0,1.5484152E1,9.0688324E-1,0E0,0E0,0E0,1.6391449E0,1.8734131E0,0E0,1.5642262E-1,0E0,5.8665466E-1,0E0,6.9080687E-1,0E0,1.6959686E0,0E0,0E0,0E0,0E0,0E0],"parents":[2147483647,0,0,1,1,2,2,3,3,4,4,8,8,9,9,11,11,13,13,15,15,17,17],"right_children":[2,4,6,8,10,-1,-1,-1,12,14,-1,16,-1,18,-1,20,-1,22,-1,-1,-1,-1,-1],"split_conditions":[1E0,-1.928165E-1,-8.11901E-1,3.694214E-1,1E0,1.9096492E-2,-2.3690488E-2,-2.4056878E-2,1E0,1E0,1.7908515E-2,1.136512E0,7.9570117E-4,1E0,8.50268E-3,-1.3566207E0,4.244051E-2,1.2731639E-1,2.1190679E-2,3.3903737E-2,1.1435448E-2,6.4077675E-2,3.671298E-2],"split_indices":[31,0,1,5,50,0,0,0,27,30,0,2,0,41,0,1,0,5,0,0,0,0,0],"split_type":[0,0,0,0,0,0,0,0,0,0,0,0,0,0,0,0,0,0,0,0,0,0,0],"sum_hessian":[4.205964E1,3.788209E1,4.1775455E0,1.3817637E1,2.4064455E1,1.1371369E0,3.0404084E0,4.2330694E0,9.584568E0,2.2030542E1,2.0339122E0,8.377134E0,1.2074342E0,2.0949898E1,1.0806453E0,5.550619E0,2.8265152E0,1.882312E1,2.1267772E0,1.4592426E0,4.091377E0,1.0381257E1,8.441863E0],"tree_param":{"num_deleted":"0","num_feature":"108","num_nodes":"23","size_leaf_vector":"1"}},{"base_weights":[1.1491418E0,1.3363562E0,-4.4548914E-1,1.4285966E0,-1.6374242E-2,-2.3679217E-2,1.824186E-2,1.5516266E0,1.4848469E-1,1.6299753E0,5.198301E-1,-2.2512466E-2,3.375269E-2,2.1480713E0,3.487425E-2,-1.7992003E-2,4.0706605E-2,6.0034156E-2,1.2646473E-2],"categories":[],"categories_nodes":[],"categories_segments":[],"categories_sizes":[],"default_left":[0,0,0,0,0,0,0,0,0,0,0,0,0,0,0,0,0,0,0],"id":81,"left_children":[1,3,5,7,-1,-1,-1,9,11,13,15,-1,-1,17,-1,-1,-1,-1,-1],"loss_changes":[1.3584824E1,8.133911E0,3.828455E0,5.717819E0,0E0,0E0,0E0,1.9296112E0,6.783839E0,8.3371735E-1,6.5198984E0,0E0,0E0,2.098095E0,0E0,0E0,0E0,0E0,0E0],"parents":[2147483647,0,0,1,1,2,2,3,3,7,7,8,8,9,9,10,10,13,13],"right_children":[2,4,6,8,-1,-1,-1,10,12,14,16,-1,-1,18,-1,-1,-1,-1,-1],"split_conditions":[1E0,1E0,1E0,1E0,-1.6374242E-2,-2.3679217E-2,1.824186E-2,1E0,4.4376782E-1,1E0,1.9144356E0,-2.2512466E-2,3.375269E-2,1E0,3.487425E-2,-1.7992003E-2,4.0706605E-2,6.0034156E-2,1.2646473E-2],"split_indices":[31,56,65,41,0,0,0,35,3,53,2,0,0,36,0,0,0,0,0],"split_type":[0,0,0,0,0,0,0,0,0,0,0,0,0,0,0,0,0,0,0],"sum_hessian":[4.2510338E1,3.818882E1,4.321518E0,3.6768265E1,1.4205552E0,3.1645687E0,1.1569492E0,3.3350853E1,3.4174116E0,3.0458279E1,2.8925757E0,1.9583898E0,1.4590218E0,6.96426E0,2.3494019E1,1.5311196E0,1.3614562E0,5.633131E0,1.3311293E0],"tree_param":{"num_deleted":"0","num_feature":"108","num_nodes":"19","size_leaf_vector":"1"}},{"base_weights":[1.1265869E0,1.2438525E-1,1.8711659E0,5.2141942E-2,-7.175732E-1,5.623193E-3,6.394055E-2,-2.794812E-2,8.778619E-3],"categories":[],"categories_nodes":[],"categories_segments":[],"categories_sizes":[],"default_left":[0,0,0,0,0,0,0,0,0],"id":82,"left_children":[1,3,5,-1,7,-1,-1,-1,-1],"loss_changes":[8.880948E0,1.1862283E1,7.262886E0,0E0,2.5899882E0,0E0,0E0,0E0,0E0],"parents":[2147483647,0,0,1,1,2,2,4,4],"right_children":[2,4,6,-1,8,-1,-1,-1,-1],"split_conditions":[1E0,-8.2228893E-1,-6.491593E-1,5.2141942E-2,3.8721986E0,5.623193E-3,6.394055E-2,-2.794812E-2,8.778619E-3],"split_indices":[42,1,1,0,4,0,0,0,0],"split_type":[0,0,0,0,0,0,0,0,0],"sum_hessian":[1.1213172E1,5.277169E0,5.9360027E0,1.1413314E0,4.135838E0,2.1375232E0,3.7984796E0,2.975242E0,1.1605959E0],"tree_param":{"num_deleted":"0","num_feature":"108","num_nodes":"9","size_leaf_vector":"1"}},{"base_weights":[1.0021077E0,3.610122E-1,1.8403156E0,-2.0030044E-2,6.5283805E-1,5.315396E-2,1.2789631E-2,1.287319E-1,3.1585306E-2,-2.4949482E-2,2.7333183E-2],"categories":[],"categories_nodes":[],"categories_segments":[],"categories_sizes":[],"default_left":[0,0,0,0,0,0,0,0,0,0,0],"id":83,"left_children":[1,3,5,-1,7,-1,-1,9,-1,-1,-1],"loss_changes":[5.575404E0,3.1765008E0,7.3088074E-1,0E0,2.0147831E0,0E0,0E0,6.2805533E0,0E0,0E0,0E0],"parents":[2147483647,0,0,1,1,2,2,4,4,7,7],"right_children":[2,4,6,-1,8,-1,-1,10,-1,-1,-1],"split_conditions":[1E0,1E0,1E0,-2.0030044E-2,1.136512E0,5.315396E-2,1.2789631E-2,1E0,3.1585306E-2,-2.4949482E-2,2.7333183E-2],"split_indices":[11,10,26,0,2,0,0,26,0,0,0],"split_type":[0,0,0,0,0,0,0,0,0,0,0],"sum_hessian":[1.0611672E1,6.823487E0,3.7881856E0,1.0191562E0,5.8043303E0,2.6236343E0,1.1645514E0,3.7748787E0,2.0294516E0,1.7251639E0,2.0497148E0],"tree_param":{"num_deleted":"0","num_feature":"108","num_nodes":"11","size_leaf_vector":"1"}},{"base_weights":[1.3686551E0,-1.5369251E-2,4.6735354E-2],"categories":[],"categories_nodes":[],"categories_segments":[],"categories_sizes":[],"default_left":[0,0,0],"id":84,"left_children":[1,-1,-1],"loss_changes":[7.8101187E0,0E0,0E0],"parents":[2147483647,0,0],"right_children":[2,-1,-1],"split_conditions":[1.136512E0,-1.5369251E-2,4.6735354E-2],"split_indices":[2,0,0],"split_type":[0,0,0],"sum_hessian":[5.70634E0,1.1043828E0,4.601957E0],"tree_param":{"num_deleted":"0","num_feature":"108","num_nodes":"3","size_leaf_vector":"1"}},{"base_weights":[1.3507955E0,-1.6144855E-2,4.5832444E-2],"categories":[],"categories_nodes":[],"categories_segments":[],"categories_sizes":[],"default_left":[0,0,0],"id":85,"left_children":[1,-1,-1],"loss_changes":[8.388719E0,0E0,0E0],"parents":[2147483647,0,0],"right_children":[2,-1,-1],"split_conditions":[1.136512E0,-1.6144855E-2,4.5832444E-2],"split_indices":[2,0,0],"split_type":[0,0,0],"sum_hessian":[6.478817E0,1.1950955E0,5.2837214E0],"tree_param":{"num_deleted":"0","num_feature":"108","num_nodes":"3","size_leaf_vector":"1"}},{"base_weights":[9.816959E-1,3.3141458E-1,4.037712E-2,6.6096085E-4,1.433667E-2],"categories":[],"categories_nodes":[],"categories_segments":[],"categories_sizes":[],"default_left":[0,0,0,0,0],"id":86,"left_children":[1,3,-1,-1,-1],"loss_changes":[1.6536584E0,2.7129272E-1,0E0,0E0,0E0],"parents":[2147483647,0,0,1,1],"right_children":[2,4,-1,-1,-1],"split_conditions":[1E0,2.7264264E-1,4.037712E-2,6.6096085E-4,1.433667E-2],"split_indices":[24,1,0,0,0],"split_type":[0,0,0,0,0],"sum_hessian":[4.31445E0,2.8804348E0,1.434015E0,1.7653679E0,1.115067E0],"tree_param":{"num_deleted":"0","num_feature":"108","num_nodes":"5","size_leaf_vector":"1"}},{"base_weights":[1.2666563E0,5.0034355E-3,1.6500456E0,9.690705E-3,5.2546114E-2],"categories":[],"categories_nodes":[],"categories_segments":[],"categories_sizes":[],"default_left":[0,0,0,0,0],"id":87,"left_children":[1,-1,3,-1,-1],"loss_changes":[2.075675E0,0E0,1.57512E0,0E0,0E0],"parents":[2147483647,0,0,2,2],"right_children":[2,-1,4,-1,-1],"split_conditions":[3.5858837E-1,5.0034355E-3,1E0,9.690705E-3,5.2546114E-2],"split_indices":[2,0,10,0,0],"split_type":[0,0,0,0,0],"sum_hessian":[4.88398E0,1.6938953E0,3.1900842E0,1.3304645E0,1.8596199E0],"tree_param":{"num_deleted":"0","num_feature":"108","num_nodes":"5","size_leaf_vector":"1"}},{"base_weights":[-3.8855579E-3,-5.500538E-1,3.5313956E-2,2.1151632E-2,-2.4211232E-2],"categories":[],"categories_nodes":[],"categories_segments":[],"categories_sizes":[],"default_left":[0,0,0,0,0],"id":88,"left_children":[1,3,-1,-1,-1],"loss_changes":[7.3043704E0,4.7968235E0,0E0,0E0,0E0],"parents":[2147483647,0,0,1,1],"right_children":[2,4,-1,-1,-1],"split_conditions":[1E0,-1.0680665E0,3.5313956E-2,2.1151632E-2,-2.4211232E-2],"split_indices":[30,0,0,0,0],"split_type":[0,0,0,0,0],"sum_hessian":[7.437498E0,5.809191E0,1.6283072E0,1.1038046E0,4.7053866E0],"tree_param":{"num_deleted":"0","num_feature":"108","num_nodes":"5","size_leaf_vector":"1"}},{"base_weights":[-1.988574E-2,3.858499E-2,-5.897238E-1,-2.4213431E-2,1.7744979E-2],"categories":[],"categories_nodes":[],"categories_segments":[],"categories_sizes":[],"default_left":[0,0,0,0,0],"id":89,"left_children":[1,-1,3,-1,-1],"loss_changes":[8.520452E0,0E0,4.1257153E0,0E0,0E0],"parents":[2147483647,0,0,2,2],"right_children":[2,-1,4,-1,-1],"split_conditions":[1E0,3.858499E-2,-3.0373456E-2,-2.4213431E-2,1.7744979E-2],"split_indices":[10,0,2,0,0],"split_type":[0,0,0,0,0],"sum_hessian":[7.543E0,1.5586193E0,5.984381E0,4.830871E0,1.1535101E0],"tree_param":{"num_deleted":"0","num_feature":"108","num_nodes":"5","size_leaf_vector":"1"}},{"base_weights":[1.4114496E0,1.5725144E0,-1.9266283E-2,-8.244108E-2,1.7606242E0,1.7578864E-2,-1.8931178E-2,6.355655E-1,1.965904E0,2.3468949E-2,-1.2285438E-3,5.8878696E-1,2.1971786E0,2.010652E-2,5.072879E-3,6.398415E-2,1.2355092E0,1.033735E-2,3.4092568E-2],"categories":[],"categories_nodes":[],"categories_segments":[],"categories_sizes":[],"default_left":[0,0,0,0,0,0,0,0,0,0,0,0,0,0,0,0,0,0,0],"id":90,"left_children":[1,3,-1,5,7,-1,-1,9,11,-1,-1,13,15,-1,-1,-1,17,-1,-1],"loss_changes":[9.5817375E0,7.151722E0,0E0,2.25662E0,3.428276E0,0E0,0E0,1.0017253E0,4.009552E0,0E0,0E0,1.494602E-1,1.6760635E0,0E0,0E0,0E0,4.030037E-2,0E0,0E0],"parents":[2147483647,0,0,1,1,3,3,4,4,7,7,8,8,11,11,12,12,16,16],"right_children":[2,4,-1,6,8,-1,-1,10,12,-1,-1,14,16,-1,-1,-1,18,-1,-1],"split_conditions":[1E0,-3.3869147E-1,-1.9266283E-2,-2.9650816E-1,-5.8766484E-1,1.7578864E-2,-1.8931178E-2,-7.0856106E-1,-4.1933528E-1,2.3468949E-2,-1.2285438E-3,6.824334E-1,1.1764381E0,2.010652E-2,5.072879E-3,6.398415E-2,2.5995985E-2,1.033735E-2,3.4092568E-2],"split_indices":[19,0,0,1,1,0,0,1,2,0,0,0,5,0,0,0,0,0,0],"split_type":[0,0,0,0,0,0,0,0,0,0,0,0,0,0,0,0,0,0,0],"sum_hessian":[2.281459E1,2.1506512E1,1.3080777E0,2.252364E0,1.9254148E1,1.0213356E0,1.2310283E0,3.6030934E0,1.5651055E1,2.2401195E0,1.3629737E0,2.7603679E0,1.2890687E1,1.0755199E0,1.684848E0,8.15714E0,4.733547E0,1.208679E0,3.5248685E0],"tree_param":{"num_deleted":"0","num_feature":"108","num_nodes":"19","size_leaf_vector":"1"}},{"base_weights":[1.4776179E0,1.6461854E0,-1.8869272E-2,1.8669534E0,-8.8864796E-2,4.4727203E-1,2.1030037E0,1.36479065E-2,-1.7384967E-2,-2.0804921E-2,5.377769E-2,7.284039E-2,1.6178992E0,9.114817E-3,4.3905757E-2],"categories":[],"categories_nodes":[],"categories_segments":[],"categories_sizes":[],"default_left":[0,0,0,0,0,0,0,0,0,0,0,0,0,0,0],"id":91,"left_children":[1,3,-1,5,7,9,11,-1,-1,-1,-1,-1,13,-1,-1],"loss_changes":[1.028302E1,8.842564E0,0E0,5.808777E0,1.7315962E0,1.0818569E1,1.970604E0,0E0,0E0,0E0,0E0,0E0,1.593296E0,0E0,0E0],"parents":[2147483647,0,0,1,1,3,3,4,4,5,5,6,6,12,12],"right_children":[2,4,-1,6,8,10,12,-1,-1,-1,-1,-1,14,-1,-1],"split_conditions":[1E0,1E0,-1.8869272E-2,-4.1933528E-1,-1.5862207E0,1E0,-3.0373456E-2,1.36479065E-2,-1.7384967E-2,-2.0804921E-2,5.377769E-2,7.284039E-2,1.136512E0,9.114817E-3,4.3905757E-2],"split_indices":[46,41,0,2,2,12,2,0,0,0,0,0,2,0,0],"split_type":[0,0,0,0,0,0,0,0,0,0,0,0,0,0,0],"sum_hessian":[2.3024237E1,2.1651894E1,1.372344E0,1.914044E1,2.5114536E0,3.14147E0,1.5998969E1,1.275985E0,1.2354685E0,2.0863397E0,1.0551302E0,4.1156096E0,1.188336E1,1.5426153E0,1.0340744E1],"tree_param":{"num_deleted":"0","num_feature":"108","num_nodes":"15","size_leaf_vector":"1"}},{"base_weights":[1.2943504E0,1.5126661E0,-4.2160663E-1,1.6124622E0,-1.7632073E-2,-2.5357535E-2,7.929612E-3,7.458766E-3,1.6735946E0,1.5120126E0,7.540678E-2,1.5612155E0,4.5343875E-3,4.333479E-2,2.6385268E-2],"categories":[],"categories_nodes":[],"categories_segments":[],"categories_sizes":[],"default_left":[0,0,0,0,0,0,0,0,0,0,0,0,0,0,0],"id":92,"left_children":[1,3,5,7,-1,-1,-1,-1,9,11,-1,13,-1,-1,-1],"loss_changes":[1.5275024E1,8.857719E0,2.595186E0,2.2065887E0,0E0,0E0,0E0,0E0,2.375E0,1.7163086E0,0E0,7.238922E-1,0E0,0E0,0E0],"parents":[2147483647,0,0,1,1,2,2,3,3,8,8,9,9,11,11],"right_children":[2,4,6,8,-1,-1,-1,-1,10,12,-1,14,-1,-1,-1],"split_conditions":[1E0,1E0,3.9068344E-1,-4.375953E-1,-1.7632073E-2,-2.5357535E-2,7.929612E-3,7.458766E-3,1E0,1E0,7.540678E-2,7.553709E-1,4.5343875E-3,4.333479E-2,2.6385268E-2],"split_indices":[50,30,0,5,0,0,0,0,64,39,0,0,0,0,0],"split_type":[0,0,0,0,0,0,0,0,0,0,0,0,0,0,0],"sum_hessian":[3.807229E1,3.388028E1,4.19201E0,3.2682724E1,1.1975561E0,2.119068E0,2.0729418E0,1.7142115E0,3.0968512E1,2.9539726E1,1.4287862E0,2.831928E1,1.220444E0,1.931683E1,9.002452E0],"tree_param":{"num_deleted":"0","num_feature":"108","num_nodes":"15","size_leaf_vector":"1"}},{"base_weights":[1.3668145E0,1.4729042E0,-1.9167956E-2,1.6066298E0,1.0382516E0,4.235344E-2,1.7221238E-2,5.5415253E-3,2.8718999E-2],"categories":[],"categories_nodes":[],"categories_segments":[],"categories_sizes":[],"default_left":[0,0,0,0,0,0,0,0,0],"id":93,"left_children":[1,3,-1,5,7,-1,-1,-1,-1],"loss_changes":[1.0310265E1,5.9775543E-1,0E0,1.0804901E0,8.280964E-1,0E0,0E0,0E0,0E0],"parents":[2147483647,0,0,1,1,3,3,4,4],"right_children":[2,4,-1,6,8,-1,-1,-1,-1],"split_conditions":[1E0,1E0,-1.9167956E-2,1E0,1E0,4.235344E-2,1.7221238E-2,5.5415253E-3,2.8718999E-2],"split_indices":[30,27,0,11,53,0,0,0,0],"split_type":[0,0,0,0,0,0,0,0,0],"sum_hessian":[3.9561665E1,3.7982624E1,1.5790409E0,2.6984259E1,1.0998364E1,2.3863077E1,3.1211812E0,1.669271E0,9.329094E0],"tree_param":{"num_deleted":"0","num_feature":"108","num_nodes":"9","size_leaf_vector":"1"}},{"base_weights":[4.2676395E-1,-2.1966968E-2,8.427165E-1,1.2570906E0,-3.5691762E-1,1.5275145E0,5.492518E-4,-1.910429E-2,9.554519E-3,7.246124E-3,1.8532583E0,5.5057377E-2,7.208028E-3],"categories":[],"categories_nodes":[],"categories_segments":[],"categories_sizes":[],"default_left":[0,0,0,0,0,0,0,0,0,0,0,0,0],"id":94,"left_children":[1,-1,3,5,7,9,-1,-1,-1,-1,11,-1,-1],"loss_changes":[8.883E0,0E0,6.355381E0,2.990159E0,1.4447341E0,2.4511795E0,0E0,0E0,0E0,0E0,2.4689121E0,0E0,0E0],"parents":[2147483647,0,0,2,2,3,3,4,4,5,5,10,10],"right_children":[2,-1,4,6,8,10,-1,-1,-1,-1,12,-1,-1],"split_conditions":[-3.3869147E-1,-2.1966968E-2,1E0,3.694214E-1,1.3388709E0,-3.0373456E-2,5.492518E-4,-1.910429E-2,9.554519E-3,7.246124E-3,1.5254738E0,5.5057377E-2,7.208028E-3],"split_indices":[0,0,64,5,0,2,0,0,0,0,2,0,0],"split_type":[0,0,0,0,0,0,0,0,0,0,0,0,0],"sum_hessian":[1.3995379E1,3.1129909E0,1.0882388E1,8.052888E0,2.8295002E0,6.4122276E0,1.6406604E0,1.8024178E0,1.0270824E0,1.7297614E0,4.6824665E0,3.4955583E0,1.186908E0],"tree_param":{"num_deleted":"0","num_feature":"108","num_nodes":"13","size_leaf_vector":"1"}},{"base_weights":[3.2336402E-1,-2.3407182E-2,8.552176E-1,1.2840816E0,-1.8844942E-2,4.8163842E-2,3.8357982E-1,-1.8227312E-1,2.5505412E-2,-1.9556314E-2,1.104251E-2],"categories":[],"categories_nodes":[],"categories_segments":[],"categories_sizes":[],"default_left":[0,0,0,0,0,0,0,0,0,0,0],"id":95,"left_children":[1,-1,3,5,-1,-1,7,9,-1,-1,-1],"loss_changes":[1.039657E1,0E0,8.278061E0,4.314125E0,0E0,0E0,1.9458756E0,1.6314458E0,0E0,0E0,0E0],"parents":[2147483647,0,0,2,2,3,3,6,6,7,7],"right_children":[2,-1,4,6,-1,-1,8,10,-1,-1,-1],"split_conditions":[-3.0373456E-2,-2.3407182E-2,1E0,7.475502E-1,-1.8844942E-2,4.8163842E-2,-6.509277E-2,1E0,2.5505412E-2,-1.9556314E-2,1.104251E-2],"split_indices":[2,0,35,2,0,0,3,24,0,0,0],"split_type":[0,0,0,0,0,0,0,0,0,0,0],"sum_hessian":[1.3323218E1,3.7295837E0,9.593635E0,7.7341375E0,1.8594972E0,3.8487706E0,3.8853667E0,2.4348903E0,1.4504764E0,1.1119938E0,1.3228966E0],"tree_param":{"num_deleted":"0","num_feature":"108","num_nodes":"11","size_leaf_vector":"1"}},{"base_weights":[1.2762395E0,1.450022E0,-2.1590125E-2,-1.7630832E-2,1.6462326E0,1.738287E0,4.207387E-3,6.180546E-1,1.8737934E0,4.8896633E-3,2.007323E-2,5.0430275E-2,8.732516E-1,-1.5239727E-3,3.2396976E-2],"categories":[],"categories_nodes":[],"categories_segments":[],"categories_sizes":[],"default_left":[0,0,0,0,0,0,0,0,0,0,0,0,0,0,0],"id":96,"left_children":[1,3,-1,-1,5,7,-1,9,11,-1,-1,-1,13,-1,-1],"loss_changes":[9.354027E0,9.840054E0,0E0,0E0,2.3075066E0,1.5565414E0,0E0,1.10224605E-1,4.5708466E-1,0E0,0E0,0E0,1.5405214E0,0E0,0E0],"parents":[2147483647,0,0,1,1,4,4,5,5,7,7,8,8,12,12],"right_children":[2,4,-1,-1,6,8,-1,10,12,-1,-1,-1,14,-1,-1],"split_conditions":[1E0,-5.5750394E-1,-2.1590125E-2,-1.7630832E-2,1.0471209E0,-2.6575398E-1,4.207387E-3,1E0,5.3655845E-1,4.8896633E-3,2.007323E-2,5.0430275E-2,-4.9471286E-1,-1.5239727E-3,3.2396976E-2],"split_indices":[12,0,0,0,0,0,0,64,0,0,0,0,1,0,0],"split_type":[0,0,0,0,0,0,0,0,0,0,0,0,0,0,0],"sum_hessian":[2.0786737E1,1.9523548E1,1.2631892E0,1.4126102E0,1.8110939E1,1.68832E1,1.2277395E0,2.4219546E0,1.4461245E1,1.3636762E0,1.0582784E0,1.1759518E1,2.7017264E0,1.1080853E0,1.5936413E0],"tree_param":{"num_deleted":"0","num_feature":"108","num_nodes":"15","size_leaf_vector":"1"}},{"base_weights":[1.2670928E0,1.4353341E0,-6.958665E-3,1.6344067E0,-5.396853E-2,1.7379106E0,1.6574232E-2,-1.5649723E-2,1.4464638E-2,5.558832E-1,4.87269E-2,1.8564753E-2,4.8093754E-3],"categories":[],"categories_nodes":[],"categories_segments":[],"categories_sizes":[],"default_left":[0,0,0,0,0,0,0,0,0,0,0,0,0],"id":97,"left_children":[1,3,-1,5,7,9,-1,-1,-1,11,-1,-1,-1],"loss_changes":[6.0396233E0,5.9362373E0,0E0,6.004791E-1,1.5539807E0,2.6945343E0,0E0,0E0,0E0,1.0779679E-1,0E0,0E0,0E0],"parents":[2147483647,0,0,1,1,3,3,4,4,5,5,9,9],"right_children":[2,4,-1,6,8,10,-1,-1,-1,12,-1,-1,-1],"split_conditions":[1E0,1E0,-6.958665E-3,1E0,1.5254738E0,-3.0373456E-2,1.6574232E-2,-1.5649723E-2,1.4464638E-2,1E0,4.87269E-2,1.8564753E-2,4.8093754E-3],"split_indices":[12,35,0,48,2,2,0,0,0,60,0,0,0],"split_type":[0,0,0,0,0,0,0,0,0,0,0,0,0],"sum_hessian":[2.0692127E1,1.872492E1,1.9672073E0,1.6431164E1,2.293757E0,1.41360035E1,2.2951598E0,1.209963E0,1.0837941E0,2.6931558E0,1.1442848E1,1.0903053E0,1.6028504E0],"tree_param":{"num_deleted":"0","num_feature":"108","num_nodes":"13","size_leaf_vector":"1"}},{"base_weights":[-1.3700898E-1,1.6773026E-2,-1.908025E-2],"categories":[],"categories_nodes":[],"categories_segments":[],"categories_sizes":[],"default_left":[0,0,0],"id":98,"left_children":[1,-1,-1],"loss_changes":[2.2261682E0,0E0,0E0],"parents":[2147483647,0,0],"right_children":[2,-1,-1],"split_conditions":[-3.543285E-1,1.6773026E-2,-1.908025E-2],"split_indices":[1,0,0],"split_type":[0,0,0],"sum_hessian":[2.38807E0,1.0115476E0,1.3765225E0],"tree_param":{"num_deleted":"0","num_feature":"108","num_nodes":"3","size_leaf_vector":"1"}},{"base_weights":[-1.6869259E-1,-1.9154958E-2,1.3600977E-2],"categories":[],"categories_nodes":[],"categories_segments":[],"categories_sizes":[],"default_left":[0,0,0],"id":99,"left_children":[1,-1,-1],"loss_changes":[1.9065592E0,0E0,0E0],"parents":[2147483647,0,0],"right_children":[2,-1,-1],"split_conditions":[1E0,-1.9154958E-2,1.3600977E-2],"split_indices":[30,0,0],"split_type":[0,0,0],"sum_hessian":[2.4981284E0,1.3181036E0,1.180025E0],"tree_param":{"num_deleted":"0","num_feature":"108","num_nodes":"3","size_leaf_vector":"1"}},{"base_weights":[1.3184085E0,6.4231284E-2,1.476666E0,1.9456869E-2,-1.6675875E-2,4.27013E-2,8.224451E-1,1.0200833E0,2.9585615E-3,3.152029E-2,4.297364E-3],"categories":[],"categories_nodes":[],"categories_segments":[],"categories_sizes":[],"default_left":[0,0,0,0,0,0,0,0,0,0,